svm_type c_svc
kernel_type rbf
gamma 0.03125
nr_class 10
total_sv 1238
rho 0.311016 0.996989 -0.129977 0.970533 1.20878 1.46481 0.704898 0.861273 0.751588 -1.1086 -0.523862 0.104113 0.0236162 -1.14699 -0.142552 -0.70799 -0.309436 0.133091 1.19743 0.66296 0.498854 1.14017 0.158808 0.16629 0.607971 0.473235 1.33635 0.654883 1.32981 0.321338 -0.906897 -1.08507 -0.0177623 -0.668024 -0.610081 -0.0360969 0.112254 -0.743524 -1.06499 0.538648 0.147359 -2.13586 -0.0820299 -0.0741995 -1.77367
label 0 1 2 3 4 5 6 7 8 9
probA -3.90762 -4.06842 -3.43176 -4.58541 -4.06301 -3.41423 -3.8494 -3.33802 -3.60918 -3.79272 -3.56691 -3.83429 -4.4038 -3.70425 -4.11984 -3.53371 -3.88783 -4.30801 -4.64624 -3.99493 -2.89866 -3.72652 -2.79635 -3.0355 -3.9023 -4.2753 -3.7786 -3.58812 -3.23308 -3.09465 -4.09699 -4.33881 -4.38658 -3.90079 -4.10504 -3.10204 -4.27098 -3.25226 -3.19963 -4.11505 -2.30477 -3.13519 -3.74486 -3.72115 -2.54667
probB 0.287801 0.306443 -0.22709 -0.0408362 -0.0980246 0.109912 0.240788 0.352238 -0.0490462 0.131456 -0.203377 -0.0585803 -0.161497 -0.0174444 -0.151358 -0.156325 0.177442 -0.107919 -0.494556 -0.0274066 0.0948577 0.0243478 -0.106673 -0.152318 -0.221014 -0.00503511 0.146156 0.101679 0.174372 -0.024575 -0.0279865 0.220457 0.266631 0.0613651 0.134446 -0.0478499 0.267278 -0.0846018 -0.0177956 0.0929859 0.127493 0.071616 -0.0683746 -0.0539912 0.0150414
nr_sv 92 93 139 122 95 119 152 72 201 153
SV
1.03339572104129 0 1.464342523317287 0.7566257290604653 2.051991999393205 1.113773866398743 1.522962252455974 0 0.8940849497151008 1:-0.17 2:0.58 3:-0.79 4:-0.86 5:-0.86 6:-0.93 7:-0.93 8:-0.93 9:-1 10:-1 11:-0.93 12:-1 13:0.1 14:-0.17 15:-0.72 16:-0.72 17:-0.79 18:-0.79 19:-0.79 20:-0.86 21:-0.86 22:-0.86 23:-0.86 24:-0.86 25:-0.86 26:-0.79 27:-0.79 28:-0.72 29:0.31 30:-0.31 31:-0.86 32:-0.86 33:-1 34:-1 35:-0.86 36:-0.86 37:-0.93 38:-0.93 39:1 40:-0.03 41:1 42:-0.73 43:-0.73 44:-0.73 45:-0.73 46:-0.64 47:-0.73 48:-0.73 49:-0.84 50:-0.685393 51:-1 52:-1 53:-1 54:-1 55:-0.73 56:-0.46 57:-0.46 58:-0.46 59:-0.46 60:-0.59 61:-0.73 62:-0.73 63:-0.73 64:-0.73 65:-0.73 66:-0.73 67:-0.73 68:-0.73 69:-0.73 70:-0.73 71:-0.73 72:-0.73 73:-0.73 74:-0.73 75:-0.73 76:-0.73 77:-0.73 78:-0.73 79:-0.73 80:-0.684211 81:-0.73 82:-0.73 83:-0.73 84:-0.73 85:-0.73 86:-0.73 87:-0.73 88:-0.73 89:-0.73 90:-0.73 91:-0.73 92:-0.73 93:-0.73 94:-0.73 95:-0.73 96:-0.73 97:-0.59 98:-0.46 99:-0.46 100:-0.33 101:-0.59 102:-1 103:-1 104:-1 105:-1 106:-1 107:-1 108:-1 109:-0.86 110:-0.73 111:-0.73 112:-0.73 113:-0.73 114:-0.33 115:1 
0 0.5865766592059831 0.2616550368615433 0 0 0.5035756295430609 0 0 0 1:-0.8 2:0.67 3:-0.61 4:-0.87 5:-0.87 6:-0.87 7:-0.87 8:-0.87 9:-0.93 10:-1 11:-1 12:-1 13:-0.74 14:0.03 15:-0.61 16:-0.74 17:-0.8 18:-0.87 19:-0.87 20:-0.8 21:-0.87 22:-0.87 23:-0.8 24:-0.8 25:-0.87 26:-0.8 27:-0.35 28:0.22 29:-0.87 30:-1 31:-0.93 32:-0.93 33:-0.93 34:-0.93 35:-0.93 36:-0.93 37:-0.87 38:-0.93 39:-0.41 40:1 41:-0.63 42:-0.81 43:-0.81 44:-0.09 45:-0.45 46:-0.266667 47:-0.63 48:-0.63 49:-0.577143 50:-0.573034 51:-1 52:-1 53:-1 54:-1 55:-1 56:-1 57:-1 58:-1 59:-0.63 60:-0.27 61:-0.27 62:-0.45 63:-0.45 64:-0.45 65:-0.63 66:-0.63 67:-0.63 68:-0.63 69:-0.63 70:-0.63 71:-0.63 72:-0.63 73:-0.63 74:-0.63 75:-0.63 76:-0.63 77:-0.63 78:-0.63 79:-0.63 80:-0.567251 81:-0.63 82:-0.63 83:-0.63 84:-0.63 85:-0.63 86:-0.63 87:-0.63 88:-0.63 89:-0.63 90:-0.63 91:-0.63 92:-0.63 93:-0.63 94:-0.63 95:-0.63 96:-0.63 97:-0.63 98:-0.45 99:-0.09 100:-0.09 101:-0.81 102:-1 103:-1 104:-1 105:-0.81 106:-1 107:-1 108:-1 109:-1 110:-0.81 111:-0.63 112:-0.63 113:-0.63 114:0.45 115:1 
0 0.121412671777449 5.452967615985214 0 1.153401970770375 0.7039854471489766 0.5894584172919666 6.11828422491301 7.860434799059541 1:-0.86 2:-0.62 3:-0.44 4:-0.72 5:-0.62 6:-0.9 7:-0.9 8:-0.9 9:-0.9 10:-0.9 11:-0.9 12:-0.9 13:-0.9 14:-0.67 15:-0.34 16:-0.48 17:-0.81 18:-0.86 19:-0.9 20:-0.9 21:-0.9 22:-0.9 23:-0.9 24:-0.9 25:-0.9 26:-0.86 27:-0.48 28:-0.39 29:-0.67 30:-0.72 31:-1 32:-1 33:-1 34:-1 35:-0.95 36:-0.95 37:-0.95 38:-0.86 39:-0.9 40:1 41:1 42:-0.5 43:-0.66 44:-0.66 45:-0.66 46:-0.546667 47:-1 48:-1 49:-0.805714 50:-1 51:-1 52:-1 53:-1 54:-0.83 55:-0.33 56:-0.33 57:-0.33 58:-0.5 59:-0.66 60:-0.66 61:-0.66 62:-0.66 63:-0.66 64:-0.66 65:-0.66 66:-0.66 67:-0.66 68:-0.66 69:-0.66 70:-0.66 71:-0.66 72:-0.66 73:-0.66 74:-0.66 75:-0.66 76:-0.66 77:-0.66 78:-0.66 79:-0.66 80:-0.602339 81:-0.66 82:-0.66 83:-0.66 84:-0.66 85:-0.66 86:-0.66 87:-0.66 88:-0.66 89:-0.66 90:-0.66 91:-0.5 93:-0.5 94:0.16 95:-0.5 96:-0.16 97:-0.33 99:-1 100:-1 101:-1 102:-1 103:-1 104:-1 105:-1 106:-1 107:-1 108:-0.66 109:-0.5 110:-0.66 111:-0.66 112:-0.33 113:-0.33 114:-0.83 
0 0 3.463351230712003 0 1.38428747277029 2.030943408052374 0 1.712315796638165 3.546015850489011 1:1 2:-0.72 3:-0.83 4:-0.89 5:-0.89 6:-0.89 7:-0.94 8:-0.94 9:-0.94 10:-0.94 11:-1 12:-0.89 13:0.02 14:-0.67 15:-0.83 16:-0.83 17:-0.83 18:-0.89 19:-0.89 20:-0.89 21:-0.89 22:-0.89 23:-0.89 24:-0.83 25:-0.67 26:-0.62 27:-0.02 28:-0.72 29:-1 30:-1 31:-0.94 32:-0.89 33:-0.94 34:-1 35:-1 36:-0.94 37:-0.78 38:-0.78 39:0.62 40:-0.56 41:0.55 42:-0.77 43:-0.77 44:-0.77 45:-0.77 46:-0.693333 47:-0.88 48:-0.88 49:-0.862857 50:-0.730337 51:-1 52:-1 53:-1 54:-1 55:-1 56:-0.88 57:-0.55 58:-0.55 59:-0.66 60:-0.77 61:-0.77 62:-0.77 63:-0.77 64:-0.77 65:-0.77 66:-0.77 67:-0.77 68:-0.77 69:-0.77 70:-0.77 71:-0.77 72:-0.77 73:-0.77 74:-0.77 75:-0.77 76:-0.77 77:-0.77 78:-0.77 79:-0.77 80:-0.730994 81:-0.77 82:-0.77 83:-0.77 84:-0.77 85:-0.77 86:-0.77 87:-0.77 88:-0.77 89:-0.77 90:-0.77 91:-0.77 92:-0.77 93:-0.77 94:-0.77 95:-0.77 96:-0.77 97:-0.66 98:-0.66 99:-0.66 100:-0.44 101:-1 102:-1 103:-1 104:-1 105:-1 106:-1 107:-1 108:-1 109:-0.88 110:-0.77 111:-0.77 112:-0.77 113:-0.77 114:-0.66 115:1 
0 2.153651185145141 0.2245271133686843 1.363522771947329 0 6.569061521077079 0 2.597777312060765 2.636309096438216 1:0.42 2:-0.47 3:-0.8 4:-0.9 5:-0.9 6:-0.9 7:-0.9 8:-1 9:-1 10:-0.95 11:-1 12:-1 13:-1 14:-0.38 15:-0.42 16:-0.76 17:-0.8 18:-0.9 19:-0.9 20:-0.9 21:-0.9 22:-0.9 23:-0.85 24:-0.85 25:-0.8 26:-0.38 28:-0.95 29:-1 30:-1 31:-0.95 32:-1 33:-1 34:-0.95 35:-0.95 36:-0.95 37:-0.9 38:-0.9 39:-0.8 40:1 41:-0.36 42:-0.68 43:-0.68 44:-0.78 45:-0.78 46:-0.706667 47:-0.89 48:-0.89 49:-0.874286 50:-0.752809 51:-1 52:-1 53:-1 54:-1 55:-1 56:-1 57:-1 58:-1 59:-0.68 60:-0.68 61:-0.68 62:-0.68 63:-0.68 64:-0.78 65:-0.78 66:-0.78 67:-0.78 68:-0.78 69:-0.78 70:-0.78 71:-0.78 72:-0.78 73:-0.78 74:-0.78 75:-0.78 76:-0.78 77:-0.78 78:-0.78 79:-0.78 80:-0.74269 81:-0.78 82:-0.78 83:-0.78 84:-0.78 85:-0.78 86:-0.78 87:-0.78 88:-0.78 89:-0.78 90:-0.78 91:-0.78 92:-0.78 93:-0.78 94:-0.78 95:-0.78 96:-0.78 97:-0.78 98:-0.68 99:-0.57 100:-0.78 101:-1 102:-1 103:-1 104:-1 105:-1 106:-1 107:-1 108:-1 109:-1 110:-1 111:-0.89 112:-0.78 113:-0.78 114:-0.68 115:1 
0 6.688430630010736 2.310937828591342 0.7501575797099483 6.13000050837057 1.42924950271286 0.8919357293060493 3.35026709368385 1.919852718426242 1:0.03 2:0.72 3:-0.79 4:-0.86 5:-0.86 6:-0.86 7:-0.86 8:-0.93 9:-1 10:-1 11:-0.37 12:0.03 13:-0.44 14:-0.72 15:-0.79 16:-0.79 17:-0.79 18:-0.86 19:-0.86 20:-0.86 21:-0.86 22:-0.86 23:-0.86 24:-0.86 25:-0.86 26:-0.58 27:-0.24 28:-0.24 29:-0.17 30:-1 31:-1 32:-0.93 33:-0.93 34:-0.93 35:-0.86 36:-0.86 37:-0.86 38:-0.51 39:1 40:-0.37 41:0.5 42:-0.62 43:-0.75 44:-0.75 45:-0.75 46:-0.826667 47:-0.87 48:-1 49:-1 50:-1 51:-1 52:-1 53:-1 54:-0.75 55:-0.5 56:-0.5 57:-0.62 58:-0.75 59:-0.75 60:-0.75 61:-0.62 62:-0.75 63:-0.75 64:-0.75 65:-0.75 66:-0.75 67:-0.75 68:-0.75 69:-0.75 70:-0.75 71:-0.75 72:-0.75 73:-0.75 74:-0.75 75:-0.75 76:-0.75 77:-0.75 78:-0.75 79:-0.75 80:-0.707602 81:-0.75 82:-0.75 83:-0.75 84:-0.75 85:-0.75 86:-0.75 87:-0.75 88:-0.75 89:-0.75 90:-0.75 91:-0.75 92:-0.75 93:-0.75 94:-0.75 95:-0.75 96:-0.75 97:-0.75 98:-0.62 99:-0.62 100:-0.25 101:-0.62 102:-1 103:-1 104:-1 105:-1 106:-1 107:-1 108:-0.87 109:-1 110:-1 111:-1 112:-0.75 113:-0.75 114:-0.37 115:1 
0 0 1.202157194515441 0.2856830402032226 0.08774125531383262 0 0.9483618898147526 0.7684434535475168 0 1:1 2:-0.85 3:-0.9 4:-0.9 5:-0.9 6:-0.95 7:-0.95 8:-0.95 9:-1 10:-1 11:-1 12:-1 13:-0.95 14:0.14 15:-0.57 16:-0.66 17:-0.8 18:-0.8 19:-0.8 20:-0.8 21:-0.8 22:-0.8 23:-0.8 24:-0.8 25:-0.71 26:-0.85 27:0.57 28:-1 29:-1 30:-1 31:-1 32:-1 33:-1 34:-1 35:-0.9 36:-0.95 37:-0.95 38:-0.9 39:0.42 40:-0.04 41:-0.29 42:-0.05 43:-0.52 44:-0.76 45:-0.76 46:-0.84 47:-1 48:-1 49:-1 50:-1 51:-1 52:-1 53:-1 54:-1 55:-1 56:-1 57:-0.88 58:-0.52 59:-0.64 60:-0.64 61:-0.76 62:-0.76 63:-0.76 64:-0.76 65:-0.76 66:-0.76 67:-0.76 68:-0.76 69:-0.76 70:-0.76 71:-0.76 72:-0.76 73:-0.76 74:-0.76 75:-0.76 76:-0.76 77:-0.76 78:-0.76 79:-0.76 80:-0.719298 81:-0.76 82:-0.76 83:-0.76 84:-0.76 85:-0.76 86:-0.76 87:-0.76 88:-0.76 89:-0.76 90:-0.76 91:-0.76 92:-0.76 93:-0.76 94:-0.76 95:-0.76 96:-0.76 97:-0.64 98:-0.41 99:-0.64 100:-1 101:-1 102:-1 103:-1 104:-0.88 105:-0.88 106:-0.05 107:-0.64 108:-0.17 109:-0.52 110:-0.88 111:-0.76 112:-0.76 113:-0.76 114:-0.29 115:1 
0.6927308277757002 0.3936675182070807 0.1135159204690825 0.8452692053264763 0.732221237927706 0.1532811632267044 0.4282906666689732 1.289214490777671 0.8604715587842503 1:-0.76 2:-0.92 4:0.53 5:-0.84 6:-0.84 7:-0.84 8:-0.84 9:-0.84 10:-0.84 11:-1 12:-1 13:-1 14:-1 15:-1 16:0.23 18:-0.53 19:-0.76 20:-0.69 21:-0.76 22:-0.76 23:-0.69 24:-0.76 25:-0.76 26:-0.61 28:-0.53 29:-0.84 30:-0.84 31:-0.84 32:-0.61 33:-0.38 34:-0.69 35:-0.84 36:-0.84 37:-0.84 38:-0.92 39:0.69 40:1 41:-0.77 42:-0.77 43:-0.77 44:0.77 45:-0.55 46:-0.4 47:-0.55 48:-0.55 49:-0.485714 50:-0.483146 51:-1 52:-1 53:-1 54:-1 55:-1 56:-1 57:-1 58:-1 59:-0.77 60:-0.11 61:-0.11 62:-0.33 63:-0.55 64:-0.55 65:-0.55 66:-0.55 67:-0.55 68:-0.55 69:-0.55 70:-0.55 71:-0.55 72:-0.55 73:-0.55 74:-0.55 75:-0.55 76:-0.55 77:0.11 78:-0.55 79:-0.55 80:-0.473684 81:-0.55 82:-0.55 83:-0.55 84:-0.55 85:-0.55 86:-0.55 87:-0.55 88:-0.33 89:0.11 90:0.11 91:0.11 92:0.33 93:0.11 94:-1 95:-1 96:-1 97:-1 98:-1 99:-1 100:-0.77 101:-0.55 102:0.55 103:-0.33 104:-0.33 105:-0.55 106:-0.77 107:-0.55 108:-0.55 109:-0.55 110:-0.55 111:-0.33 112:-0.77 113:-1 114:-0.77 115:1 
0 0 0 0 0 2.611034237219935 0 0 0 1:0.75 2:-0.56 3:-0.9 4:-0.9 5:-0.95 6:-0.95 7:-0.95 8:-0.95 9:-0.95 10:-0.95 11:-1 12:-1 13:-1 14:-1 15:0.02 16:-0.7 17:-0.8 18:-0.85 19:-0.85 20:-0.9 21:-0.9 22:-0.9 23:-0.85 24:-0.85 25:-0.7 26:0.02 27:-0.75 28:-1 29:-1 30:-1 31:-1 32:-1 33:-1 34:-1 35:-0.9 36:-0.9 37:-0.85 38:-0.85 39:-0.75 40:1 41:1 42:-0.28 43:-0.71 44:-0.71 45:-0.71 46:-0.8 47:-0.85 48:-0.85 49:-0.828571 50:-0.662921 51:-1 52:-1 53:-1 54:-1 55:-1 56:-1 57:-1 58:-1 59:-0.42 60:-0.42 61:-0.42 62:-0.42 63:-0.57 64:-0.71 65:-0.71 66:-0.71 67:-0.71 68:-0.71 69:-0.71 70:-0.71 71:-0.71 72:-0.71 73:-0.71 74:-0.71 75:-0.71 76:-0.71 77:-0.71 78:-0.71 79:-0.71 80:-0.660819 81:-0.71 82:-0.71 83:-0.71 84:-0.71 85:-0.71 86:-0.71 87:-0.71 88:-0.71 89:-0.71 90:-0.71 91:-0.71 92:-0.71 93:-0.71 94:-0.71 95:-0.71 96:-0.57 97:-0.28 98:-0.85 99:-1 100:-1 101:-1 102:-1 103:-1 104:-1 105:-1 106:-1 107:-1 108:-1 109:-0.85 110:-0.71 111:-0.71 112:-0.71 113:-0.71 114:-0.28 115:1 
0 0.07268672256299062 0 0 0.07834186253333225 1.901331960221179 0.1910132228189943 0.9002086417889348 0 1:-0.81 2:0.27 3:0.18 4:-0.45 5:-0.72 6:-0.81 7:-0.81 8:-0.81 9:-0.81 10:-1 11:-1 12:-1 13:-0.81 14:-0.9 15:-1 16:-0.36 17:0.27 18:-0.18 19:-0.63 20:-0.81 21:-0.81 22:-0.81 23:-0.63 24:-0.63 25:-0.63 26:-0.27 27:0.27 28:-0.36 29:-1 30:-1 31:-1 32:-0.9 33:-0.36 34:-0.81 35:-0.9 36:-0.9 37:-0.81 38:-0.72 39:-0.72 40:1 42:-0.5 43:0.16 44:-0.5 45:-0.33 46:-0.106667 47:-0.5 48:-0.66 49:-0.611429 50:-0.235955 51:-0.403509 52:-0.67619 53:-0.701754 54:-0.66 55:-0.16 56:-0.33 57:-0.5 58:-0.5 59:-0.5 60:-0.5 61:-0.5 62:-0.5 63:-0.5 64:-0.5 65:-0.5 66:-0.5 67:-0.5 68:-0.5 69:-0.33 70:-0.33 71:-0.33 72:-0.33 73:-0.33 74:-0.33 75:-0.33 76:-0.33 77:-0.16 79:-0.33 80:-0.602339 81:-0.66 82:-0.66 83:-0.66 84:-0.5 85:-0.5 86:-0.5 87:-0.33 89:1 90:-1 91:-1 92:-1 93:-1 94:-1 95:-1 96:-1 97:-1 98:-1 99:-1 100:-1 101:-1 102:-1 103:-1 104:-1 105:-1 106:-1 107:-1 108:-0.83 109:-0.66 110:-0.83 111:-0.83 112:-0.83 113:-0.83 114:-0.83 115:-0.83 
0 5.486221246690024 0 0.8781087400801468 0 0 3.23229012458072 0 0 1:0.41 2:-0.17 3:-0.7 4:-0.88 5:-0.94 6:-0.94 7:-0.94 8:-1 9:-1 10:-1 11:-1 12:-1 13:-1 14:-0.64 15:0.11 16:-0.64 17:-0.76 18:-0.82 19:-0.82 20:-0.88 21:-0.88 22:-0.88 23:-0.88 24:-0.88 25:-0.82 26:-0.52 27:0.29 28:-0.58 29:-1 30:-1 31:-1 32:-1 33:-1 34:-1 35:-1 36:-1 37:-0.88 38:-0.82 39:-0.35 40:1 41:0.04 42:-0.52 43:-0.8 44:-0.8 45:-0.8 46:-0.866667 47:-0.9 48:-1 49:-1 50:-1 51:-1 52:-1 53:-1 54:-1 55:-1 56:-1 57:-0.8 58:-0.71 59:-0.61 60:-0.61 61:-0.71 62:-0.8 63:-0.8 64:-0.8 65:-0.8 66:-0.8 67:-0.8 68:-0.8 69:-0.8 70:-0.8 71:-0.8 72:-0.8 73:-0.8 74:-0.8 75:-0.8 76:-0.8 77:-0.8 78:-0.8 79:-0.8 80:-0.766082 81:-0.8 82:-0.8 83:-0.8 84:-0.8 85:-0.8 86:-0.8 87:-0.8 88:-0.8 89:-0.8 90:-0.8 91:-0.8 92:-0.8 93:-0.8 94:-0.8 95:-0.8 96:-0.8 97:-0.8 98:-0.8 99:-0.8 100:-0.61 101:-0.52 102:-0.8 103:-1 104:-1 105:-1 106:-1 107:-1 108:-1 109:-1 110:-1 111:-1 112:-0.9 113:-0.8 114:-0.52 115:1 
0 0 0 0 0 3.459088178456569 0 0 0 1:1 2:-0.65 3:-0.9 4:-0.9 5:-0.95 6:-1 7:-1 8:-1 9:-1 10:-1 11:-1 12:-1 13:-1 14:-0.17 15:-0.31 16:-0.8 17:-0.85 18:-0.9 19:-0.9 20:-0.9 21:-0.9 22:-0.9 23:-0.9 24:-0.9 25:-0.12 26:-0.12 27:-1 28:-1 29:-1 30:-1 31:-1 32:-1 33:-1 34:-1 35:-0.95 36:-0.9 37:-0.9 38:-0.75 39:-0.12 40:0.31 41:-0.46 42:0.06 43:-0.2 44:-0.59 45:-0.73 46:-0.64 47:-0.73 48:-0.86 49:-1 50:-1 51:-1 52:-1 53:-1 54:-1 55:-1 56:-1 57:-1 58:-0.59 59:-0.46 60:-0.46 61:-0.59 62:-0.73 63:-0.73 64:-0.73 65:-0.73 66:-0.73 67:-0.73 68:-0.73 69:-0.73 70:-0.73 71:-0.73 72:-0.73 73:-0.73 74:-0.73 75:-0.73 76:-0.73 77:-0.73 78:-0.73 79:-0.73 80:-0.684211 81:-0.73 82:-0.73 83:-0.73 84:-0.73 85:-0.73 86:-0.73 87:-0.73 88:-0.73 89:-0.73 90:-0.73 91:-0.73 92:-0.73 93:-0.73 94:-0.73 95:-0.73 96:-0.73 97:-0.73 98:-0.59 99:-0.46 100:-0.46 101:-0.86 102:-1 103:-1 104:-1 105:-1 106:-1 107:-1 108:-1 109:-1 110:-1 111:-0.86 112:-0.73 113:-0.46 114:-0.06 115:1 
2.152014970832458 2.164473111754682 6.07233198926547 1.691750709496135 1.233463986079394 2.085961144466424 2.202422288418155 1.466247206682335 4.474334842687252 1:-0.89 2:-0.89 3:-1 4:-1 5:-1 6:-1 7:-0.89 8:-0.68 9:0.68 10:0.68 11:-0.68 12:-0.78 13:-0.78 14:-0.89 15:-0.89 16:-1 17:-1 18:-1 19:-1 20:-0.26 21:0.05 22:-0.57 23:-0.68 24:-0.78 25:-0.78 26:-0.68 27:-0.15 28:0.15 29:-0.68 30:-1 31:-1 32:-1 33:-1 34:-1 35:-1 36:-1 37:-0.89 38:0.15 39:1 40:-0.26 41:0.33 42:0.33 44:-0.33 45:-0.33 46:-0.106667 47:-0.33 48:-0.33 49:-0.611429 50:-0.235955 51:-0.403509 52:-0.352381 53:-0.122807 54:-0.5 55:-0.33 56:-0.5 57:-1 58:-1 59:-1 60:-1 61:-0.5 62:-0.33 63:-0.5 64:-0.5 65:-0.66 66:-0.66 67:-0.66 68:-0.66 69:-0.66 70:-0.66 71:-0.66 72:-0.66 73:-0.66 74:-0.66 75:-0.66 76:-0.66 77:-0.66 78:-0.66 79:-0.66 80:-0.602339 81:-0.66 82:-0.66 83:-0.66 84:-0.66 85:-0.66 86:-0.66 87:-0.66 88:-0.66 89:-0.66 90:-0.66 91:-0.66 92:-0.66 93:-0.66 94:-0.66 95:-0.5 96:-0.33 97:-0.66 98:-1 99:-1 100:-1 101:-1 102:-1 103:-1 104:-1 105:-1 106:-1 107:-1 108:-0.83 109:-0.83 110:-0.83 111:-0.83 112:-0.33 113:-0.5 114:-0.16 115:1 
0 1.963793134626778 0 0 0 0 0 7.967794648176393 5.658063041353037 1:0.4 2:-0.4 3:-0.8 4:-0.9 5:-0.9 6:-0.9 7:-0.94 8:-0.94 9:-0.94 10:-1 11:-1 12:-1 13:-1 14:-0.9 15:-0.5 16:-0.14 17:-0.8 18:-0.84 19:-0.9 20:-0.9 21:-0.9 22:-0.9 23:-0.9 24:-0.9 25:-0.55 26:-0.1 27:-0.69 28:-1 29:-1 30:-1 31:-1 32:-1 33:-1 34:-1 35:-1 36:-1 37:-1 38:-0.9 39:-0.59 40:1 41:0.77 42:-0.44 43:-0.77 44:-0.77 45:-0.88 46:-0.84 47:-0.88 48:-1 49:-1 50:-1 51:-1 52:-1 53:-1 54:-1 55:-1 56:-1 57:-0.88 58:-0.66 59:-0.66 60:-0.66 61:-0.77 62:-0.77 63:-0.77 64:-0.77 65:-0.77 66:-0.77 67:-0.77 68:-0.77 69:-0.77 70:-0.77 71:-0.77 72:-0.77 73:-0.77 74:-0.77 75:-0.77 76:-0.77 77:-0.77 78:-0.77 79:-0.77 80:-0.730994 81:-0.77 82:-0.77 83:-0.77 84:-0.77 85:-0.77 86:-0.77 87:-0.77 88:-0.77 89:-0.77 90:-0.77 91:-0.77 92:-0.77 93:-0.77 94:-0.77 95:-0.77 96:-0.77 97:-0.66 98:-0.55 99:-0.66 100:-0.88 101:-1 102:-1 103:-1 104:-1 105:-1 106:-1 107:-1 108:-1 109:-1 110:-1 111:-0.88 112:-0.77 113:-0.77 114:-0.33 115:1 
1.276479494125803 3.730238205977754 1.461702968984705 2.062880382623761 1.8990927836795 1.687995314745096 1.653251126444854 2.762629611858625 2.239894475229855 1:-0.65 2:0.56 3:0.65 4:-0.47 5:-0.3 6:-0.39 7:-0.65 8:-0.73 9:-0.82 10:-0.82 11:-0.82 12:-0.73 13:-0.47 14:-0.73 15:-0.82 16:-0.82 17:-0.3 18:-0.04 19:-0.04 20:-0.56 21:-0.82 22:-0.82 23:-0.04 24:-0.04 25:-1 26:-1 27:-1 28:-1 29:-1 30:-1 31:-1 32:-1 33:-1 34:-1 35:-0.91 36:-0.91 37:-0.91 38:-0.73 39:-0.13 40:1 41:1 42:0.11 43:-0.33 44:-0.33 45:-0.55 46:-0.4 47:-0.55 48:-0.55 49:-0.485714 50:0.011236 51:-0.210526 52:-0.142857 53:0.561404 54:-0.11 55:-0.11 56:-0.11 57:-0.11 58:-0.11 59:-0.11 60:-0.11 61:-0.11 62:-0.11 63:-0.11 64:-0.11 65:-0.11 66:-0.11 67:-0.11 68:-0.11 69:-0.55 70:-0.55 71:-0.55 72:-0.55 73:-0.55 74:-0.55 75:-0.55 76:-0.55 77:-0.55 78:0.11 79:0.77 80:-0.216374 81:-1 82:-1 83:-1 84:-1 85:-1 86:-1 87:-1 88:-1 89:-1 90:-1 91:-1 92:-1 93:-1 94:-1 95:-1 96:-1 97:-1 98:-1 99:0.11 100:-0.55 101:-0.55 102:-0.55 103:-0.55 104:-0.55 105:-0.55 106:-0.55 107:-0.33 108:-0.55 109:-0.55 110:-0.55 111:-0.55 112:-0.55 113:-0.55 114:-0.55 115:0.55 
1.038968709730504 2.274717938537782 0.7499748941889599 1.503827917779493 1.227670425675087 3.14037585482212 2.278000451886461 3.407689026947911 0.6845427662485318 1:-1 2:0.15 3:0.3 4:-0.69 5:-0.76 6:-0.84 7:-0.84 8:-0.84 9:-0.76 10:-0.38 11:-0.84 12:-1 13:-1 14:-1 15:-1 16:-1 17:-0.46 19:0.38 20:-0.23 21:-0.46 22:-0.46 23:-0.61 24:-0.38 25:0.15 26:-0.61 27:-0.92 28:-0.92 29:-0.92 30:-0.38 31:0.76 32:-0.46 33:-1 34:-1 35:-0.92 36:-0.84 37:-0.84 38:-0.84 39:-0.23 40:1 41:1 42:0.11 43:-0.11 44:-0.33 45:-0.55 46:-0.4 47:-0.55 48:-0.55 49:-0.485714 50:0.011236 51:-0.210526 52:0.27619 53:0.947368 54:-0.11 55:-0.11 56:-0.11 57:-0.11 58:-0.11 59:-0.11 60:-0.11 61:-0.11 62:-0.11 63:-0.11 64:-0.11 65:-0.11 66:-0.11 67:-0.11 68:-0.55 69:-0.55 70:-0.55 71:-0.55 72:-0.55 73:-0.55 74:-0.55 75:-0.55 76:-0.11 77:0.77 78:0.33 79:-1 80:-1 81:-1 82:-1 83:-1 84:-1 85:-1 86:-1 87:-1 88:-1 89:-1 90:-1 91:-1 92:-1 93:-1 94:-1 95:-0.33 96:-0.33 97:-0.55 98:-0.55 99:-0.55 100:-0.55 101:-0.55 102:-0.55 103:-0.55 104:-0.55 105:-0.55 106:-0.55 107:-0.55 108:-0.55 109:-0.33 110:0.33 111:-0.33 112:-0.33 113:-0.33 114:-0.33 115:-0.33 
0 1.118742900078635 0 0 0 0 0 0 0 1:-0.65 2:0.65 3:-0.21 4:-0.82 5:-0.82 6:-0.91 7:-0.91 8:-0.91 9:-0.91 10:-1 11:-1 12:-1 13:-1 14:-1 15:-1 16:-0.56 17:0.39 18:-0.65 19:-0.65 20:-0.82 21:-0.82 22:-0.82 23:-0.82 24:-0.73 25:0.3 26:-0.13 27:-1 28:-1 29:-1 30:-1 31:-1 32:-1 33:-1 34:-1 35:-0.91 36:-0.82 37:-0.82 38:-0.47 39:0.3 40:1 41:-0.22 42:-0.55 43:-0.66 44:-0.77 45:-0.77 46:-0.84 47:-0.88 48:-0.88 49:-0.862857 50:-0.730337 51:-1 52:-1 53:-1 54:-1 55:-1 56:-1 57:-1 58:-1 59:-1 60:-1 61:-0.77 62:-0.66 63:-0.66 64:-0.77 65:-0.77 66:-0.77 67:-0.77 68:-0.77 69:-0.77 70:-0.77 71:-0.77 72:-0.77 73:-0.77 74:-0.77 75:-0.77 76:-0.77 77:-0.77 78:-0.77 79:-0.77 80:-0.730994 81:-0.77 82:-0.77 83:-0.77 84:-0.77 85:-0.77 86:-0.77 87:-0.77 88:-0.77 89:-0.77 90:-0.77 91:-0.77 92:-0.77 93:-0.77 94:-0.66 95:-0.55 96:-0.55 97:-1 98:-1 99:-1 100:-1 101:-1 102:-1 103:-1 104:-1 105:-1 106:-1 107:-1 108:-1 109:-1 110:-0.88 111:-0.77 112:-0.77 113:-0.77 114:-0.22 115:1 
0 0 0 0 0.8681633667459697 0 0 0 0 1:1 3:-0.58 4:-0.75 5:-0.75 6:-0.91 7:-1 8:-1 9:-1 10:-1 11:-1 12:-1 13:-1 14:-1 15:-1 16:-1 17:-0.41 18:-0.25 19:-0.66 20:-0.66 21:-0.83 22:-0.91 23:-0.83 24:-0.41 25:0.16 26:-0.66 27:-1 28:-1 29:-1 30:-1 31:-1 32:-1 33:-1 34:-1 35:-1 36:-0.91 37:-0.91 38:-0.83 39:-0.66 40:-0.25 41:1 42:1 43:1 44:0.33 45:-0.33 46:-0.106667 47:-0.33 48:-0.33 49:-0.234286 50:0.505618 51:-0.403509 52:-0.352381 53:-0.403509 54:-0.66 55:-0.66 56:-0.66 57:-0.66 58:-0.66 59:-0.66 60:-1 61:-1 62:-1 63:-1 64:-1 65:-1 66:-0.33 69:-0.33 70:-0.33 71:-0.33 72:-0.33 73:-0.33 74:-0.33 75:-0.33 76:-0.33 77:-0.33 78:-0.33 79:-0.33 80:-0.216374 81:-0.33 82:-0.33 83:-0.33 84:-0.33 85:-0.33 86:-0.33 87:-0.33 88:-0.33 89:-0.33 90:-0.33 91:-0.33 92:-0.33 93:-0.33 94:-0.33 95:-0.33 96:-0.33 97:-0.66 98:-0.66 99:-1 100:-1 101:-1 102:-1 103:-1 104:-1 105:-0.66 106:-0.66 107:-0.66 108:-0.66 109:-0.66 110:-0.66 111:-0.66 112:-0.66 113:-0.66 114:-0.66 115:-0.66 
0 0 0 0 0 2.347768776697559 0 0 0 1:1 2:-0.06 3:-0.86 4:-0.86 5:-1 6:-1 7:-1 8:-1 9:-0.86 10:-1 11:-1 12:-1 13:-1 14:-1 15:-1 16:-1 17:-0.86 18:-0.33 19:0.06 20:-0.33 21:-0.46 22:-0.46 23:-0.59 24:-0.73 25:-1 26:-1 27:-1 28:-1 29:-1 30:-1 31:-1 32:-1 33:-1 34:-1 35:-1 36:-1 37:-0.86 38:-0.86 39:-0.86 40:-0.59 41:1 42:0.27 43:-0.27 44:-0.27 45:-0.27 46:-0.266667 47:-0.63 48:-0.63 49:-0.577143 50:-0.168539 51:-0.350877 52:-0.295238 53:-0.350877 54:-0.63 55:-0.63 56:-0.63 57:-0.63 58:-0.63 59:-0.63 60:-0.63 61:-0.63 62:-0.81 63:-0.81 64:-0.81 65:-0.45 66:-0.45 67:-0.45 68:-0.45 69:-0.45 70:-0.45 71:-0.45 72:-0.63 73:-0.63 74:-0.63 75:-0.63 76:-0.63 77:-0.63 78:-0.63 79:-0.81 80:-0.777778 81:-0.81 82:-0.81 83:-0.81 84:-0.81 85:-0.81 86:-0.81 87:-0.81 88:-0.81 89:-0.63 90:-0.63 91:-0.81 92:-1 93:-1 94:-1 95:-1 96:-1 97:-0.81 98:-0.81 99:-0.81 100:-0.81 101:-0.81 102:-0.81 103:-0.81 104:-0.81 105:-0.81 106:-0.81 107:-0.81 108:-0.63 109:-0.45 110:-0.45 111:-0.45 112:-0.09 113:0.45 114:0.63 115:0.81 
0 0 0 0 0.01089904758676287 0 0 0 0 1:-0.59 2:1 3:0.59 4:-0.59 5:-0.59 6:-0.86 7:-1 8:-1 9:-1 10:-1 11:-1 12:-1 13:-1 14:-1 15:-1 16:-0.46 17:-0.2 18:-0.2 19:-0.46 20:-0.73 21:-0.73 22:-0.59 23:-0.59 24:0.06 25:0.33 26:-1 27:-1 28:-1 29:-1 30:-1 31:-1 32:-1 33:-1 34:-1 35:-0.86 36:-0.73 37:-0.73 38:0.33 39:1 40:0.46 41:0.25 42:-0.5 43:-0.87 44:-0.87 45:-0.75 46:-0.666667 47:-0.87 48:-0.87 49:-1 50:-1 51:-1 52:-1 53:-1 54:-1 55:-1 56:-1 57:-1 58:-1 59:-1 60:-1 61:-1 62:-1 63:-0.87 64:-0.62 65:-0.62 66:-0.75 67:-0.75 68:-0.75 69:-0.75 70:-0.75 71:-0.75 72:-0.75 73:-0.75 74:-0.75 75:-0.75 76:-0.75 77:-0.75 78:-0.75 79:-0.75 80:-0.707602 81:-0.75 82:-0.75 83:-0.75 84:-0.75 85:-0.75 86:-0.75 87:-0.75 88:-0.75 89:-0.75 90:-0.75 91:-0.75 92:-0.75 93:-0.75 94:-0.75 95:-0.87 96:-1 97:-1 98:-1 99:-1 100:-1 101:-1 102:-1 103:-1 104:-1 105:-1 106:-1 107:-1 108:-1 109:-1 110:-1 111:-0.87 112:-0.75 113:-0.75 115:1 
1.097883910541911 10.43965249500521 3.773768896531417 0 0 3.172469174331106 0 0 0.5911741521694286 1:1 2:-0.13 3:-0.73 4:-0.73 5:-0.82 6:-0.82 7:-0.82 8:-0.91 9:-1 10:-1 11:-1 12:-1 13:-1 14:-1 15:-1 16:-0.56 17:-0.39 18:-0.56 19:-0.73 20:-0.82 21:-0.82 22:-0.39 23:0.04 24:-0.73 25:-1 26:-1 27:-1 28:-1 29:-1 30:-1 31:-1 32:-1 33:-0.91 34:-0.82 35:-0.82 36:-0.82 37:-0.73 38:0.04 39:0.21 40:0.04 41:-1 42:-1 43:-1 44:-1 45:-1 46:-1 47:-1 48:-1 49:-1 50:-1 51:-1 52:-1 53:-1 54:-1 55:-1 56:-1 57:-1 58:-1 59:-1 60:-1 61:-1 62:-1 63:-0.73 64:-0.73 65:-0.73 66:-0.73 67:-0.73 68:-0.73 69:-0.73 70:-0.73 71:-0.73 72:-0.73 73:-0.73 74:-0.73 75:-0.73 76:-0.73 77:-0.73 78:-0.73 79:-0.73 80:-0.684211 81:-0.73 82:-0.73 83:-0.73 84:-0.73 85:-0.73 86:-0.73 87:-0.73 88:-0.73 89:-0.73 90:-0.73 91:-0.59 92:-0.59 93:-0.73 94:-1 95:-1 96:-1 97:-1 98:-1 99:-1 100:-1 101:-1 102:-1 103:-1 104:-1 105:-1 106:-1 107:-1 108:-1 109:-0.86 110:-0.86 111:-0.73 112:-0.73 113:-0.73 114:0.06 115:1 
0 0 1.45989278403455 0 0 0 1.617457157896618 0.5969742288182898 0.8352033505942277 1:0.45 2:-0.09 3:-0.27 4:0.27 5:0.09 6:-0.27 7:-0.27 8:-0.45 9:-0.63 10:-0.63 11:-0.63 12:-0.63 13:-0.63 14:-0.63 15:-0.63 16:-0.63 17:-0.27 18:0.09 19:-0.27 20:-0.63 21:-0.63 22:-0.63 23:-0.63 24:0.45 25:1 26:-0.45 27:-1 28:-1 29:-1 30:-1 31:-1 32:-1 33:-1 34:-1 35:-1 36:-0.81 37:-0.63 38:-0.63 39:-0.27 40:0.09 41:-0.07 42:-0.07 43:-0.23 44:-0.38 45:-0.69 46:-0.586667 47:-0.69 48:-0.69 49:-0.817143 50:-0.640449 51:-0.719298 52:-0.695238 53:-0.719298 54:-0.84 55:-0.84 56:-0.84 57:-0.84 58:-0.84 59:-0.84 60:-0.84 61:-0.84 62:-1 63:-1 64:-0.84 65:-0.07 66:0.23 67:-0.69 68:-1 69:-1 70:-1 71:-1 72:-1 73:-1 74:-0.69 75:-0.07 76:-0.23 77:-0.53 78:-0.69 79:-0.69 80:-0.637427 81:-0.69 82:-0.69 83:-0.69 84:-0.69 85:-0.69 86:-0.69 87:-0.69 88:-0.69 89:-0.69 90:-0.69 91:-0.69 92:-0.69 93:-0.84 94:-1 95:-1 96:-1 97:-1 98:-1 99:-1 100:-1 101:-1 102:-1 103:-1 104:-0.84 105:-0.84 106:-0.84 107:-0.84 108:-0.84 109:-0.84 110:-0.69 111:-0.69 112:-0.53 113:-0.53 114:0.07 115:1 
0 0 0 0 0 0 0 0 1.889770399714003 1:0.18 2:-0.48 3:-0.85 4:-0.85 5:-0.85 6:-0.85 7:-1 8:-1 9:-1 10:-1 11:-1 12:-1 13:-1 14:-1 15:-1 16:-1 17:-0.7 18:-0.25 19:-0.55 20:-0.77 21:-0.85 22:-0.55 23:-0.03 24:-0.55 25:-1 26:-1 27:-1 28:-1 29:-1 30:-1 31:-1 32:-1 33:-1 34:-1 35:-0.85 36:-0.85 37:-0.85 38:-0.85 39:-0.11 40:1 41:0.45 42:-0.09 43:-0.45 44:-0.45 45:-0.45 46:-0.266667 47:-0.63 48:-0.63 49:-0.782857 50:-0.573034 51:-0.666667 52:-0.638095 53:-0.666667 54:-0.81 55:-0.81 56:-0.81 57:-0.81 58:-0.81 59:-0.81 60:-1 61:-1 62:-1 63:-1 64:-1 65:-0.81 66:-0.63 67:-0.63 68:-0.63 69:-0.63 70:-0.63 71:-0.63 72:-0.63 73:-0.63 74:-0.63 75:-0.63 76:-0.63 77:-0.63 78:-0.63 79:-0.45 80:-0.356725 81:-0.45 82:-0.45 83:-0.45 84:-0.45 85:-0.45 86:-0.45 87:-0.45 88:-0.45 89:-0.45 90:-0.45 91:-0.45 92:-0.45 93:-0.63 94:-0.81 95:-0.81 96:-0.81 97:-0.81 98:-0.81 99:-0.81 100:-0.81 101:-0.81 102:-0.81 103:-0.81 104:-0.81 105:-0.81 106:-0.81 107:-0.81 108:-0.81 109:-0.81 110:-0.63 111:-0.63 112:-0.45 113:-0.27 114:0.27 115:1 
0.698063936227831 4.212929168361773 1.642159908085723 1.839590629887935 0 3.503698554886138 2.629837222452395 1.280666007472528 0.1580904367290863 1:0.59 2:-0.4 3:-0.73 4:-0.8 5:-0.8 6:-0.8 7:-0.93 8:-0.93 9:-0.93 10:-0.93 11:-0.93 12:-0.93 13:-0.93 14:-0.59 16:-0.73 17:-0.8 18:-0.8 19:-0.8 20:-0.73 21:-0.73 22:-0.2 23:-0.46 24:-0.93 25:-0.93 26:-0.93 27:-0.93 28:-0.93 29:-0.93 30:-0.93 31:-0.93 32:-0.8 33:-0.8 34:-0.46 35:1 36:-0.73 37:-1 38:-0.93 39:-0.93 40:-0.93 41:0.11 42:-0.44 43:-0.66 44:-0.66 45:-0.66 46:-0.546667 47:-0.77 48:-0.88 49:-0.862857 50:-0.730337 51:-0.789474 52:-1 53:-1 54:-1 55:-1 56:-0.77 57:-0.77 58:-1 59:-1 60:-1 61:-0.88 62:-0.77 63:-0.77 64:-0.77 65:-0.77 66:-0.77 67:-0.77 68:-0.77 69:-0.77 70:-0.77 71:-0.77 72:-0.77 73:-0.77 74:-0.77 75:-0.77 76:-0.77 77:-0.77 78:-0.77 79:-0.77 80:-0.730994 81:-0.77 82:-0.77 83:-0.77 84:-0.77 85:-0.77 86:-0.77 87:-0.77 88:-0.77 89:-0.77 90:-0.77 91:-0.77 92:-0.77 93:-0.77 94:-0.77 95:-0.77 96:-0.66 97:-0.88 98:-1 99:-1 100:-1 101:-1 102:-1 103:-1 104:-1 105:-1 106:-1 107:-1 108:-1 109:-1 110:-1 111:-1 112:-1 113:-1 114:-0.22 115:1 
0.3494078992900098 0 0 0 0 0.1183242927458954 0 0 0 1:1 2:-0.5 3:-0.85 4:-0.92 5:-1 6:-1 7:-1 8:-1 9:-1 10:-1 11:-1 12:-1 13:-0.85 14:-0.07 15:-0.57 16:-0.71 17:-0.78 18:-0.92 19:-0.85 20:-0.78 21:-0.42 22:-0.07 23:-0.92 24:-1 25:-1 26:-1 27:-1 28:-1 29:-1 30:-1 31:-0.92 32:-0.92 33:-0.85 34:-0.14 35:0.71 36:-1 37:-0.92 38:-0.92 39:-1 40:-1 41:-0.59 42:-0.33 43:-0.06 44:-0.46 45:-0.59 46:-0.453333 47:-0.73 48:-0.86 49:-0.84 50:-0.685393 51:-0.754386 52:-0.733333 53:-0.754386 54:-0.73 55:-0.73 56:-1 57:-1 58:-1 59:-1 60:-1 61:-1 62:-1 63:-1 64:-0.73 65:-0.46 66:-0.46 67:-0.59 68:-0.73 69:-0.73 70:-0.73 71:-0.73 72:-0.73 73:-0.73 74:-0.73 75:-0.73 76:-0.73 77:-0.73 78:-0.73 79:-0.73 80:-0.684211 81:-0.73 82:-0.73 83:-0.73 84:-0.73 85:-0.73 86:-0.73 87:-0.73 88:-0.73 89:-0.73 90:-0.73 91:-0.73 92:-0.73 93:-0.73 94:-0.59 95:-0.73 96:-0.73 97:-0.86 98:-1 99:-1 100:-1 101:-1 102:-1 103:-1 104:-1 105:-1 106:-1 107:-1 108:-1 109:-1 110:-0.86 111:-0.86 112:-0.86 113:-0.86 114:-0.06 115:1 
0 0 0 0.0184571346618054 0 0 0 0 0 1:-0.25 2:-0.5 3:-0.5 4:-0.5 5:-0.5 6:-0.5 7:-0.75 8:-1 9:-1 10:-1 11:-1 12:-1 13:-1 14:-1 15:-1 16:-1 17:-1 18:0.25 19:1 21:-0.5 22:-0.5 24:0.5 25:-0.25 26:-1 27:-1 28:-1 29:-1 30:-1 31:-1 32:-1 33:-1 34:-1 35:-1 36:-1 37:-0.75 38:-0.75 39:-0.5 40:-0.5 41:0.83 42:0.16 43:-0.33 44:-0.33 45:-0.5 46:-0.333333 47:-0.66 48:-0.66 49:-0.611429 50:-0.235955 51:-0.403509 52:-0.352381 53:-0.701754 54:-0.83 55:-0.83 56:-0.83 57:-0.83 58:-0.83 59:-1 60:-1 61:-1 62:-1 63:-1 64:-1 65:-1 66:-0.83 67:-0.66 68:-0.66 69:-0.66 70:-0.66 71:-0.66 72:-0.66 73:-0.66 74:-0.66 75:-0.66 76:-0.66 77:-0.66 78:-0.66 79:-0.66 80:-0.80117 81:-0.83 82:-0.83 83:-0.83 84:-0.83 85:-0.83 86:-0.83 87:-0.83 88:-0.83 89:-0.83 90:-0.83 91:-1 92:-1 93:-1 94:-1 95:-1 96:-1 97:-1 98:-1 99:-1 100:-1 101:-1 102:-1 103:-1 104:-0.83 105:-0.83 106:-0.83 107:-0.66 108:-0.5 109:-0.5 110:-0.33 111:-0.33 112:-0.33 113:-0.16 114:0.33 115:1 
0 0.2697647077146556 0 0.1693357903321003 0 0 0 0 0 1:0.42 2:-0.35 3:-0.78 4:-0.78 5:-0.78 6:-0.78 7:-0.78 8:-0.92 9:-1 10:-1 11:-1 12:-1 13:-1 14:-1 15:-1 16:-0.57 17:-0.35 18:-0.71 19:-0.78 20:-0.85 21:-0.85 22:-0.42 24:-0.71 25:-1 26:-1 27:-1 28:-1 29:-1 30:-1 31:-1 32:-1 33:-1 34:-0.92 35:-0.85 36:-0.78 37:-0.78 38:-0.71 39:-0.07 40:1 41:-0.77 42:-0.55 43:-0.33 44:-0.33 45:-0.55 46:-0.693333 47:-0.77 48:-0.77 49:-0.737143 50:-0.483146 51:-0.596491 52:-0.561905 53:-0.596491 54:-0.77 55:-0.77 56:-0.77 57:-0.77 58:-0.77 59:-0.77 60:-0.77 61:-0.55 62:-0.33 63:-0.33 64:-0.33 65:-0.33 66:-0.33 67:-0.33 68:-0.33 69:-0.33 70:-0.33 71:-0.33 72:-0.33 73:-0.33 74:-0.33 75:-0.33 76:-0.33 77:-0.33 78:-0.33 79:-0.33 80:-0.216374 81:-0.33 82:-0.55 83:-0.55 84:-0.55 85:-0.55 86:-0.55 87:-0.55 88:-0.55 89:-0.55 90:-0.55 91:-0.33 92:-0.77 93:-1 94:-1 95:-1 96:-1 97:-1 98:-1 99:-0.77 100:-0.77 101:-0.77 102:-0.77 103:-0.77 104:-0.77 105:-0.77 106:-0.77 107:-0.55 108:-0.33 109:-0.33 110:-0.33 111:-0.33 112:-0.11 113:0.33 114:0.55 115:1 
0 0 0 0 3.406302511290296 0 1.380535012961888 0 0 1:0.8 2:0.2 3:-0.29 4:-0.69 5:-0.9 6:-0.9 7:-0.9 8:-0.9 9:-0.9 10:-0.9 11:-0.9 12:-0.9 13:-0.29 14:-0.2 15:-0.2 16:-0.29 17:-0.69 18:-0.69 19:-0.69 20:-0.8 21:-0.8 22:-0.8 23:-0.8 24:-0.59 25:0.59 26:0.2 27:-0.8 28:-1 29:-1 30:-1 31:-1 32:-1 33:-1 34:-1 35:-1 36:-0.9 37:-0.8 38:-0.29 39:0.5 40:1 41:1 42:-0.41 43:-0.88 44:-0.88 45:-0.88 46:-1 47:-1 48:-1 49:-1 50:-1 51:-1 52:-1 53:-0.789474 54:-0.64 55:-0.64 56:-0.64 57:-0.76 58:-0.76 59:-0.76 60:-0.76 61:-0.76 62:-0.76 63:-0.76 64:-0.76 65:-0.76 66:-0.76 67:-0.76 68:-0.76 69:-0.76 70:-0.76 71:-0.76 72:-0.76 73:-0.76 74:-0.76 75:-0.76 76:-0.76 77:-0.76 78:-0.76 79:-0.76 80:-0.719298 81:-0.76 82:-0.76 83:-0.76 84:-0.76 85:-0.76 86:-0.76 87:-0.76 88:-0.76 89:-0.76 90:-0.76 91:-0.76 92:-0.76 93:-0.76 94:-0.76 95:-0.76 96:-0.76 97:-0.64 98:-1 99:-1 100:-1 101:-1 102:-1 103:-1 104:-1 105:-1 106:-0.88 107:-0.88 108:-0.88 109:-0.88 110:-0.88 111:-0.88 112:-0.76 113:-0.64 114:-0.52 115:-0.17 
0 1.007763812539284 0 0 2.317914961800992 2.540992659573328 0.05355354229733353 1.546935199641574 0 1:1 3:-0.69 4:-0.84 5:-0.84 6:-0.92 7:-0.92 8:-1 9:-1 10:-1 11:-1 12:-0.76 13:0.84 14:-0.84 15:-0.84 16:-0.84 17:-0.84 18:-0.84 19:-0.84 20:-0.84 21:-0.84 22:-0.84 23:-0.84 24:-0.84 25:-0.84 26:-0.84 27:-0.69 28:0.38 29:-0.38 30:-0.92 31:-1 32:-1 33:-1 34:-1 35:-0.92 36:-0.69 37:-0.76 38:-0.61 39:1 40:-0.15 41:0.25 42:-0.87 43:-0.37 44:-0.37 45:-0.87 46:-1 47:-1 48:-1 49:-1 50:-1 51:-1 52:-1 53:-1 54:-1 55:-0.87 56:-0.62 57:-0.62 58:-0.5 59:-0.62 60:-0.75 61:-0.75 62:-0.75 63:-0.75 64:-0.75 65:-0.75 66:-0.75 67:-0.75 68:-0.75 69:-0.75 70:-0.75 71:-0.75 72:-0.62 73:-0.75 74:-0.75 75:-0.75 76:-0.75 77:-0.75 78:-0.75 79:-0.75 80:-0.707602 81:-0.75 82:-0.75 83:-0.75 84:-0.75 85:-0.75 86:-0.75 87:-0.75 88:-0.75 89:-0.75 90:-0.75 91:-0.75 92:-0.75 93:-0.75 94:-0.75 95:-0.75 96:-0.75 97:-0.75 98:-0.5 99:-0.62 100:-1 101:-1 102:-1 103:-1 104:-1 105:-1 106:-1 107:-1 108:-1 109:-1 110:-1 111:-1 112:-0.75 113:-0.62 114:-0.25 115:1 
3.572039724130409 5.80823063297372 5.07896672931731 0 5.95366715091682 4.636175393026569 0.7806096647326886 5.502669503075761 1.142894937022241 1:-0.62 2:0.62 3:0.75 4:-0.5 5:-0.75 6:-0.75 7:-0.75 8:-1 9:-1 10:-1 11:-1 12:-1 13:-1 14:-1 15:-1 16:-1 17:-1 18:-0.62 19:0.25 20:-0.25 21:-0.62 22:-0.75 23:-0.75 24:-0.87 25:-1 26:-1 27:-1 28:-1 29:-1 30:-1 31:-1 32:-1 33:-1 34:-1 35:-1 36:-0.87 37:-0.62 38:0.12 39:0.62 40:1 41:-0.33 43:0.16 44:-0.33 45:-0.66 46:-0.546667 47:-0.83 48:-1 49:-1 50:-1 51:-1 52:-1 53:-1 54:-1 55:-1 56:-1 57:-1 58:-1 59:-1 60:-1 61:-1 62:-1 63:-1 64:-1 65:-1 66:-0.83 67:-0.66 68:-0.66 69:-0.83 70:-0.83 71:-0.83 72:-0.83 73:-0.83 74:-0.83 75:-0.83 76:-0.83 77:-0.83 78:-0.83 79:-0.83 80:-0.80117 81:-0.83 82:-0.83 83:-0.83 84:-0.83 85:-0.83 86:-0.83 87:-0.83 88:-0.83 89:-0.83 90:-0.83 91:-0.83 92:-1 93:-1 94:-1 95:-1 96:-1 97:-1 98:-1 99:-1 100:-1 101:-1 102:-1 103:-1 104:-1 105:-1 106:-1 107:-1 108:-1 109:-1 110:-1 111:-0.83 112:-0.5 113:-0.33 114:0.33 115:1 
1.33666171878594 1.496552983620289 0 2.831206713671491 3.173752935365189 2.81598225653215 1.611333668836705 4.560306554202629 3.533134871901735 1:-0.52 2:-0.8 3:-0.9 4:-0.9 5:-1 6:-1 7:-1 8:-1 9:-0.52 10:-0.52 11:-0.9 12:-0.9 13:-0.9 14:-0.9 15:-0.9 16:-0.9 17:-0.9 18:-0.9 19:-0.9 20:-0.9 21:-0.9 22:-0.9 23:-0.9 24:-0.71 25:-0.52 26:-0.33 27:-0.52 28:-0.9 29:-0.9 30:-0.9 31:-0.9 32:-0.8 33:-0.52 34:-0.71 35:-0.9 36:-0.9 37:-0.8 38:-0.8 39:-0.14 40:1 41:-0.63 42:-0.63 43:-0.63 44:-0.63 45:-0.63 46:-0.506667 47:-0.63 48:-0.63 49:-0.577143 50:-0.168539 51:-0.350877 52:-0.295238 53:-0.0350877 54:0.27 55:0.09 56:-0.45 57:-0.45 58:-0.45 59:-0.09 60:0.45 61:-0.27 62:-1 63:-1 64:-1 65:-1 66:-1 67:-1 68:-1 69:-1 70:-1 71:-1 72:-0.63 73:-0.09 74:-0.27 75:-0.63 76:-0.63 77:-0.63 78:-0.63 79:-0.63 80:-0.567251 81:-0.63 82:-0.63 83:-0.63 84:-0.63 85:-0.63 86:-0.63 87:-0.45 88:0.27 89:0.27 90:-0.27 91:-0.27 92:-0.27 93:-0.27 94:-0.27 95:-0.27 96:-0.27 97:-0.45 98:-0.63 99:-0.45 100:-0.45 101:-0.63 102:-0.63 103:-0.63 104:-0.63 105:-0.63 106:-0.63 107:-0.63 108:-0.63 109:-0.63 110:-0.63 111:-0.63 112:-0.45 113:-0.27 114:0.27 115:1 
0 0 0 0 0 0 1.150549830287526 5.016548480288911 5.932377318008836 1:1 2:0.22 3:-0.44 4:-0.66 5:-0.88 6:-0.88 7:-0.88 8:-0.88 9:-1 10:-1 11:-1 12:-1 13:-1 14:-1 15:-1 16:-1 17:-1 18:-1 19:-0.77 20:-0.55 21:-0.22 22:-0.22 23:-0.55 24:-0.44 25:-0.22 26:-0.55 27:-1 28:-1 29:-1 30:-1 31:-1 32:-1 33:-1 34:-1 35:-1 36:-1 37:-1 38:-1 39:-0.55 40:0.11 41:0.14 42:-0.28 43:-0.57 44:-0.71 45:-0.71 46:-0.613333 47:-0.71 48:-0.85 49:-0.828571 50:-0.662921 51:-0.736842 52:-0.714286 53:-0.736842 54:-0.85 55:-0.85 56:-0.85 57:-0.85 58:-1 59:-1 60:-1 61:-1 62:-1 63:-1 64:-1 65:-1 66:-1 67:-1 68:-1 69:-0.85 70:-0.85 71:-0.71 72:-0.71 73:-0.71 74:-0.71 75:-0.71 76:-0.71 77:-0.71 78:-0.71 79:-0.71 80:-0.660819 81:-0.71 82:-0.71 83:-0.71 84:-0.71 85:-0.71 86:-0.71 87:-0.85 88:-0.85 89:-0.85 90:-0.71 91:-0.71 92:-0.71 93:-0.85 94:-1 95:-1 96:-0.85 97:-0.85 98:-0.85 99:-0.85 100:-0.85 101:-0.85 102:-0.85 103:-0.85 104:-0.85 105:-0.85 106:-0.85 107:-0.85 108:-0.85 109:-0.71 110:-0.71 111:-0.71 112:-0.57 113:-0.42 114:0.28 115:1 
1.486721296305936 1.864516120197791 0 4.700685684845665 1.032323001145179 3.438916567627377 0 1.266218642235075 1.262338236172034 1:0.85 2:-0.42 3:-0.85 4:-0.85 5:-0.85 6:-0.92 7:-1 8:-1 9:-1 10:-1 11:-1 12:-1 13:-1 14:-1 15:-0.57 16:-0.07 17:-0.64 18:-0.85 19:-0.85 20:-0.78 21:0.07 22:-0.57 23:-1 24:-1 25:-1 26:-1 27:-1 28:-1 29:-1 30:-1 31:-1 32:-1 33:-1 34:-0.85 35:-0.21 36:1 37:-0.57 38:-0.92 39:-0.85 40:-1 41:0.23 42:-0.38 43:-0.69 44:-0.53 45:-0.53 46:-0.586667 47:-0.84 48:-0.84 49:-0.817143 50:-0.303371 51:-0.45614 52:-0.695238 53:-0.719298 54:-0.84 55:-0.84 56:-0.84 57:-0.84 58:-0.69 59:-0.84 60:-1 61:-1 62:-1 63:-1 64:-0.84 65:-0.69 66:-0.69 67:-0.69 68:-0.69 69:-0.69 70:-0.69 71:-0.69 72:-0.69 73:-0.69 74:-0.69 75:-0.69 76:-0.69 77:-0.69 78:-0.69 79:-0.69 80:-0.637427 81:-0.69 82:-0.69 83:-0.69 84:-0.69 85:-0.69 86:-0.69 87:-0.69 88:-0.69 89:-0.69 90:-0.69 91:-0.69 92:-0.69 93:-0.53 94:-0.53 95:-0.69 96:-1 97:-1 98:-1 99:-1 100:-1 101:-1 102:-1 103:-1 104:-1 105:-1 106:-1 107:-1 108:-1 109:-1 110:-0.84 111:-0.84 112:-0.84 113:-0.69 114:0.07 115:1 
0 6.37816144021109 6.827007994111927 1.213530595035651 0.284808474674023 4.899529202364087 0 3.762019552608325 10.31806298622615 1:0.48 2:-0.58 3:-0.84 4:-0.84 5:-0.89 6:-0.89 7:-0.89 8:-0.94 9:-0.94 10:-0.94 11:-1 12:-1 13:-0.17 14:-0.58 15:-0.84 16:-0.79 17:-0.89 18:-0.89 19:-0.89 20:-0.89 21:-0.89 22:-0.89 23:-0.89 24:-0.89 25:-0.84 26:-0.79 27:-0.79 28:-0.64 29:0.07 30:-0.79 31:-1 32:-1 33:-1 34:-1 35:-1 36:-1 37:-0.89 38:-0.84 39:-0.48 40:1 41:0.71 42:-0.57 43:-0.71 44:-0.71 45:-0.85 46:-0.8 47:-0.85 48:-1 49:-1 50:-1 51:-1 52:-1 53:-1 54:-1 55:-1 56:-1 57:-0.85 58:-0.42 59:-0.42 60:-0.57 61:-0.71 62:-0.71 63:-0.71 64:-0.71 65:-0.71 66:-0.71 67:-0.71 68:-0.71 69:-0.71 70:-0.71 71:-0.71 72:-0.71 73:-0.71 74:-0.71 75:-0.71 76:-0.71 77:-0.71 78:-0.71 79:-0.71 80:-0.660819 81:-0.71 82:-0.71 83:-0.71 84:-0.71 85:-0.71 86:-0.71 87:-0.71 88:-0.71 89:-0.71 90:-0.71 91:-0.71 92:-0.71 93:-0.71 94:-0.71 95:-0.71 96:-0.71 97:-0.71 98:-0.42 99:-0.57 100:-0.57 101:-0.71 102:-1 103:-1 104:-1 105:-1 106:-1 107:-1 108:-1 109:-1 110:-0.85 111:-0.85 112:-0.71 113:-0.57 115:1 
0 0 1.011841228692461 0 0 0 0 0 0.8157484928057652 1:-0.72 2:0.24 3:-0.03 4:-0.86 5:-0.93 6:-1 7:-1 8:-1 9:-1 10:-0.93 11:-1 12:-1 13:-1 14:-0.51 15:0.37 16:-0.58 17:-0.86 18:-0.86 19:-0.86 20:-0.86 21:-0.86 22:-0.86 23:-0.86 24:-0.86 25:-0.79 26:-0.65 27:-0.31 28:-0.44 29:-0.93 30:-0.93 31:-0.93 32:-0.93 33:-0.93 34:-0.93 35:-0.93 36:-0.86 37:-0.86 38:-0.93 39:-0.44 40:1 41:1 42:-0.2 43:-0.8 44:-0.8 45:-0.8 46:-1 47:-1 48:-1 49:-1 50:-1 51:-1 52:-1 53:-1 54:-1 55:-1 56:-1 57:-1 58:-1 59:-0.59 60:-0.4 61:-0.59 62:-0.59 63:-0.59 64:-0.59 65:-0.59 66:-0.59 67:-0.59 68:-0.4 69:0.59 71:-1 72:-1 73:-1 74:-0.8 75:-0.59 76:-0.59 77:-0.59 78:-0.59 79:-0.59 80:-0.520468 81:-0.59 82:-0.59 83:-0.59 84:-0.59 85:-0.59 86:-0.59 87:-0.59 88:-0.59 89:-0.59 90:-0.59 91:-0.59 92:-0.59 93:-0.4 94:-0.4 95:-0.59 96:-0.59 97:-0.2 98:-0.2 99:-1 100:-1 101:-1 102:-1 103:-1 104:-1 105:-1 106:-1 107:-1 108:-1 109:-1 110:-1 111:-0.8 112:-0.8 113:-0.4 114:0.2 115:1 
0.4686996120720939 4.569204540782307 5.811510517534445 0 5.095091434984347 4.010655411013526 0 9.930123388663818 10.05243025579288 1:-0.15 2:0.05 3:-0.05 4:-0.57 5:-0.78 6:-0.78 7:-0.78 8:-0.89 9:-1 10:-1 11:-1 12:-1 13:-1 14:-0.57 15:0.26 16:-0.47 17:-0.89 18:-0.78 19:-0.89 20:-0.89 21:-0.89 22:-0.89 23:-0.89 24:-0.89 25:-0.78 26:-0.78 27:-0.78 28:-0.89 29:-0.89 30:-0.89 31:-0.89 32:-0.89 33:-0.89 34:-0.89 35:-0.89 36:-0.89 37:-0.89 38:-0.89 39:-0.15 40:1 41:-0.12 42:-0.37 43:-0.5 44:-0.5 45:-0.5 46:-0.493333 47:-0.75 48:-0.75 49:-0.714286 50:-0.438202 51:-0.561404 52:-0.52381 53:-0.561404 54:-0.75 55:-0.75 56:-0.75 57:-0.75 58:-0.75 59:-0.75 60:-0.75 61:-0.5 62:-0.25 63:-0.37 65:1 67:-1 68:-1 69:-1 70:-0.75 71:-0.75 72:-0.75 73:-0.75 74:-0.75 75:-0.75 76:-0.75 77:-0.75 78:-0.75 79:-0.75 80:-0.707602 81:-0.75 82:-0.75 83:-0.75 84:-0.75 85:-0.75 86:-0.75 87:-0.75 88:-0.75 89:-0.75 90:-0.37 92:-0.25 93:-0.5 94:-0.5 95:-0.5 96:-0.5 97:-0.37 98:-0.5 99:-0.75 100:-0.75 101:-0.75 102:-0.75 103:-0.75 104:-0.75 105:-0.75 106:-0.75 107:-0.62 108:-0.62 109:-0.62 110:-0.62 111:-0.5 112:-0.37 113:-0.37 114:-0.12 115:0.12 
6.470188309980565 18.89745292086527 15.42844750732474 2.994275917621366 0.2597457542620139 11.70082894133413 0.8590803172258444 12.88236479702241 10.67811641030159 1:-0.2 2:-0.69 3:-1 4:-1 5:-0.69 6:-0.59 7:-0.69 8:-0.8 9:-0.8 10:-0.8 11:-0.8 12:-0.8 13:-0.8 14:-0.69 15:-0.69 16:-0.8 17:-0.8 18:-0.8 19:-0.8 20:-0.8 21:-0.8 22:-0.8 23:-0.69 24:-0.4 25:0.1 26:-0.2 27:-0.5 28:-1 29:-1 30:-1 31:-1 32:-1 33:-1 34:-1 35:-1 36:-1 37:-0.9 38:0.69 39:1 41:1 42:-0.28 43:-1 44:-0.85 45:-0.85 46:-1 47:-1 48:-1 49:-1 50:-1 51:-1 52:-1 53:-1 54:-1 55:-1 56:-1 57:-1 58:-0.85 59:-0.71 60:-0.57 61:-0.57 62:-0.71 63:-0.71 64:-0.71 65:-0.71 66:-0.71 67:-0.28 68:0.14 69:-0.57 70:-1 71:-1 72:-1 73:-1 74:-1 75:-1 76:-1 77:-1 78:-1 79:-1 80:-1 81:-1 82:-1 83:-1 84:-1 85:-1 86:-1 87:-1 88:-1 89:-1 90:-1 91:-1 92:-1 93:-1 94:-0.85 95:-0.85 96:-1 97:-0.85 98:-0.28 99:-0.57 100:-1 101:-1 102:-1 103:-1 104:-1 105:-1 106:-1 107:-1 108:-1 109:-1 110:-1 111:-1 112:-0.71 113:-0.28 115:0.28 
1.597981121919092 17.50116203280281 7.590200814362219 0 0 31.71179923450687 0 16.09273260644803 19.3818334832358 1:-0.14 2:-0.04 3:0.04 4:-0.52 5:-0.9 6:-0.9 7:-1 8:-1 9:-1 10:-1 11:-1 12:-1 13:-1 14:-1 15:-1 16:-1 17:-0.33 18:-0.04 19:-0.52 20:-0.71 21:-0.71 22:-0.8 23:-0.8 24:-0.8 25:-0.8 26:-0.8 27:-0.61 28:-0.8 29:-0.8 30:-0.8 31:-0.8 32:-0.8 33:-0.8 34:-0.8 35:-0.8 36:-0.8 37:-0.71 38:-0.71 39:0.04 40:1 41:-0.23 42:-0.53 43:-0.69 44:-0.69 45:-0.69 46:-0.586667 47:-0.69 48:-0.84 49:-1 50:-1 51:-1 52:-1 53:-1 54:-1 55:-1 56:-1 57:-1 58:-1 59:-1 60:-1 61:-0.84 62:-0.69 63:-0.69 64:-0.69 65:-0.69 66:-0.69 67:-0.69 68:-0.69 69:-0.23 70:-0.07 71:-0.69 72:-1 73:-1 74:-1 75:-1 76:-1 77:-1 78:-1 79:-1 80:-1 81:-1 82:-1 83:-1 84:-1 85:-1 86:-1 87:-0.84 88:-0.38 89:-0.53 90:-0.69 91:-0.69 92:-0.69 93:-0.53 94:-0.53 95:-0.69 96:-1 97:-1 98:-1 99:-1 100:-1 101:-1 102:-1 103:-1 104:-1 105:-1 106:-1 107:-1 108:-1 109:-1 110:-1 111:-0.84 112:-0.84 113:-0.69 114:0.07 115:1 
0 0 0 0 0 0 0.8132696558327854 4.310617281020655 1.698249937804444 1:-0.69 2:0.29 3:0.5 4:-0.5 5:-0.8 6:-0.9 7:-0.9 8:-1 9:-1 10:-1 11:-1 12:-1 13:-1 14:-0.4 15:0.69 16:-0.1 17:-0.69 18:-0.69 19:-0.8 20:-0.8 21:-0.8 22:-0.8 23:-0.8 24:-0.8 25:-0.8 26:-0.59 27:0.5 28:0.4 29:-0.9 30:-1 31:-1 32:-0.9 33:-1 34:-1 35:-1 36:-1 37:-1 38:-0.2 39:0.4 40:1 41:0.69 42:-0.23 43:-0.84 44:-0.84 45:-0.69 46:-0.586667 47:-0.84 48:-0.84 49:-1 50:-1 51:-1 52:-1 53:-1 54:-1 55:-0.84 56:-0.69 57:-0.53 58:-0.53 59:-0.53 60:-0.69 61:-0.69 62:-0.69 63:-0.69 64:-0.69 65:-0.69 66:-0.69 67:-0.69 68:-0.69 69:-0.69 70:-0.69 71:-0.69 72:-0.69 73:-0.69 74:-0.69 75:-0.69 76:-0.69 77:-0.69 78:-0.69 79:-0.69 80:-0.637427 81:-0.69 82:-0.69 83:-0.69 84:-0.69 85:-0.69 86:-0.69 87:-0.69 88:-0.69 89:-0.69 90:-0.69 91:-0.69 92:-0.69 93:-0.69 94:-0.69 95:-0.69 96:-0.69 97:-0.69 98:-0.69 99:-0.38 100:-0.23 101:-0.53 102:-1 103:-1 104:-1 105:-1 106:-1 107:-1 108:-1 109:-0.69 110:-0.69 111:-1 112:-1 113:-1 114:-0.07 115:1 
0 0 0 0 0 0 0 0 2.43161262885584 1:0.31 2:-0.42 3:-0.71 4:-0.77 5:-0.77 6:-0.82 7:-0.88 8:-0.88 9:-0.88 10:-0.88 11:-0.88 12:-0.88 13:-0.88 14:-0.71 15:-0.31 16:-0.77 17:-0.88 18:-0.88 19:-0.88 20:-0.82 21:-0.88 22:-0.88 23:-0.88 24:-0.82 25:-0.65 26:-0.08 27:-0.59 28:-0.94 29:-1 30:-1 31:-1 32:-1 33:-1 34:-1 35:-1 36:-1 37:-0.88 38:-0.94 39:-0.42 40:1 41:1 43:-0.5 44:-0.5 45:-0.75 46:-0.666667 47:-0.75 48:-1 49:-1 50:-1 51:-1 52:-1 53:-1 54:-1 55:-1 56:-1 57:-1 58:-1 59:-1 60:-0.75 61:-0.25 62:-0.25 63:-0.25 64:-0.5 65:-0.5 66:-0.5 67:-0.5 68:-0.5 69:-0.5 70:-0.5 71:-0.5 72:-0.5 73:-0.5 74:-0.5 75:-0.5 76:-0.5 77:-0.5 78:-0.5 79:-0.5 80:-0.415205 81:-0.5 82:-0.5 83:-0.5 84:0.25 85:0.75 86:-0.75 87:-1 88:-1 89:0.5 90:0.25 91:-0.5 92:-0.5 93:-0.5 94:-0.5 96:-0.5 97:-1 98:-1 99:-1 100:-1 101:-1 102:-1 103:-1 104:-1 105:-1 106:-1 107:-1 108:-1 109:-0.5 110:-0.5 111:-0.5 112:-0.5 114:0.5 115:1 
0 0 0 0.2005210496051313 0 0 0 0 0 1:0.64 2:-0.21 3:-0.85 4:-0.92 5:-0.92 6:-0.92 7:-0.92 8:-0.92 9:-0.92 10:-1 11:-1 12:-1 13:-1 14:-1 15:-1 16:-1 17:-1 18:-0.64 19:-0.42 20:-0.71 21:-0.85 22:-0.85 23:-0.57 24:-0.21 25:-0.64 26:-1 27:-1 28:-1 29:-1 30:-1 31:-1 32:-1 33:-1 34:-1 35:-0.92 36:-0.92 37:-0.92 38:-1 39:-0.14 40:1 41:0.84 42:-0.07 43:-1 44:-1 45:-0.84 46:-1 47:-1 48:-1 49:-1 50:-1 51:-1 52:-1 53:-1 54:-1 55:-1 56:-1 57:-1 58:-1 59:-1 60:-1 61:-1 62:-1 63:-1 64:-1 65:-0.84 66:-0.84 67:-0.69 68:-0.69 69:-0.69 70:-0.69 71:-0.69 72:-0.69 73:-0.69 74:-0.69 75:-0.69 76:-0.69 77:-0.69 78:-0.69 79:-0.69 80:-0.637427 81:-0.69 82:-0.69 83:-0.69 84:-0.69 85:-0.69 86:-0.69 87:-0.69 88:-0.69 89:-0.53 90:-0.84 91:-1 92:-1 93:-1 94:-1 95:-1 96:-1 97:-1 98:-1 99:-1 100:-1 101:-1 102:-1 103:-1 104:-1 105:-1 106:-1 107:-0.84 108:-0.84 109:-0.69 110:-0.84 111:-0.84 112:-0.84 113:-0.84 114:0.07 115:1 
0 0 0 0 0 0 0 0 2.055464609750215 1:1 2:-0.25 3:-0.75 4:-0.83 5:-0.83 6:-0.83 7:-0.91 8:-1 9:-1 10:-1 11:-1 12:-1 13:-1 14:-1 15:-0.66 16:-0.25 17:-0.58 18:-0.66 19:-0.75 20:-0.83 21:-0.83 22:-0.75 23:-0.66 24:-0.58 25:0.25 26:-0.5 27:-1 28:-1 29:-1 30:-1 31:-1 32:-1 33:-1 34:-1 35:-1 36:-1 37:-0.91 38:-0.41 39:0.08 40:0.41 41:-0.05 42:-0.52 43:-0.88 44:-0.88 45:-0.88 46:-0.84 47:-0.52 48:-0.29 49:-0.725714 50:-1 51:-1 52:-1 53:-1 54:-1 55:-1 56:-1 57:-1 58:-1 59:-1 60:-1 61:-1 62:-1 63:-0.76 64:-0.76 65:-0.76 66:-0.76 67:-0.76 68:-0.76 69:-0.76 70:-0.76 71:-0.76 72:-0.76 73:-0.76 74:-0.76 75:-0.76 76:-0.76 77:-0.76 78:-0.76 79:-0.76 80:-0.719298 81:-0.76 82:-0.76 83:-0.76 84:-0.76 85:-0.76 86:-0.76 87:-0.76 88:-0.76 89:-0.76 90:-0.76 91:-0.76 92:-0.76 93:-0.76 94:-0.76 95:-0.76 96:-0.76 97:-0.76 98:-0.76 99:-0.88 100:-1 101:-1 102:-1 103:-1 104:-1 105:-1 106:-1 107:-1 108:-1 109:-0.88 110:-0.88 111:-1 112:-1 113:-1 114:-0.29 115:1 
0 0 0 0.1409932081027779 0 0 0 0 0 1:-0.14 2:1 3:-0.33 4:-0.9 5:-0.9 6:-1 7:-1 8:-1 9:-1 10:-1 11:-1 12:-1 13:-1 14:-0.14 15:1 16:-0.8 17:-0.8 18:-0.8 19:-0.8 20:-0.9 21:-0.9 22:-0.9 23:-0.9 24:-0.8 25:-0.52 26:-0.14 27:0.23 28:-0.42 29:-1 30:-1 31:-1 32:-1 33:-1 34:-1 35:-0.9 36:-1 37:-0.23 38:0.61 39:-0.8 40:-0.04 41:1 42:0.11 43:-0.55 44:-0.55 45:-0.77 46:-0.693333 47:-0.77 48:-1 49:-1 50:-1 51:-1 52:-1 53:-1 54:-1 55:-1 56:-1 57:-1 58:-1 59:-1 60:-1 61:-1 62:-1 63:-0.77 64:-0.33 65:-0.11 66:-0.11 67:-0.33 68:-0.33 69:-0.33 70:-0.55 71:-0.55 72:-0.55 73:-0.55 74:-0.55 75:-0.55 76:-0.55 77:-0.55 78:-0.55 79:-0.55 80:-0.473684 81:-0.55 82:-0.55 83:-0.55 84:-0.55 85:-0.55 86:-0.55 87:-0.55 88:-0.55 89:-0.55 90:-0.55 91:-0.55 92:-0.55 93:-0.55 94:-0.55 95:-0.55 96:-0.55 97:-0.55 98:-0.55 99:-0.55 100:-0.55 101:-0.55 102:-0.55 103:-0.55 104:-0.55 105:-0.55 106:-0.55 107:-0.55 108:-0.55 109:-0.55 110:-0.55 111:-0.55 112:-0.55 113:-0.55 114:-0.55 115:-0.55 
0 0 0 0 0 0 0 0 0.4595099723105291 1:0.73 2:-0.26 3:-0.8 4:-0.8 5:-0.8 6:-0.8 7:-0.8 8:-0.93 9:-1 10:-1 11:-1 12:-1 13:-1 14:-1 15:-1 16:-0.53 17:-0.4 18:-0.73 19:-0.8 20:-0.86 21:-0.86 22:-0.86 23:-0.8 24:-0.2 25:-0.4 26:-1 27:-1 28:-1 29:-1 30:-1 31:-1 32:-1 33:-1 34:-1 35:-0.86 36:-0.8 37:-0.8 38:-0.8 39:-0.13 40:1 41:1 42:0.25 43:-0.5 44:-0.5 45:-0.5 46:-0.333333 47:-0.5 48:-0.5 49:-0.714286 50:-1 51:-1 52:-1 53:-1 54:-1 55:-1 56:-1 57:-1 58:-1 59:-1 60:-1 61:-1 62:-1 63:-1 64:-0.75 65:-0.5 66:-0.25 67:-0.5 68:-0.5 69:-0.5 70:-0.5 71:-0.5 72:-0.5 73:-0.5 74:-0.5 75:-0.5 76:-0.5 77:-0.5 78:-0.5 79:-0.5 80:-0.415205 81:-0.5 82:-0.5 83:-0.5 84:-0.5 85:-0.5 86:-0.5 87:-0.5 88:-0.5 89:-0.5 90:-0.5 91:-0.5 92:-0.5 93:-0.5 94:-0.5 95:-0.5 96:-0.5 97:-0.5 98:-1 99:-1 100:-1 101:-1 102:-1 103:-1 104:-1 105:-1 106:-1 107:-1 108:-1 109:-1 110:-1 111:-1 112:-1 113:-0.75 114:-0.5 115:-0.5 
0 0 0 0 0 0 0 0 0.4201436526601011 1:1 2:0.29 3:-0.29 4:-0.8 5:-0.8 6:-0.8 7:-0.8 8:-0.8 9:-0.8 10:-0.9 11:-1 12:-1 13:-0.59 14:-0.4 15:-0.69 16:-0.1 17:-0.29 18:-0.8 19:-0.8 20:-0.8 21:-0.8 22:-0.8 23:-0.8 24:0.2 25:0.69 26:-0.9 27:-1 28:-1 29:-1 30:-1 31:-1 32:-0.9 33:-0.9 34:-1 35:-1 36:-1 37:-1 38:0.29 39:0.9 41:1 42:-0.09 43:-0.63 44:-0.63 45:-0.63 46:-0.746667 47:-0.81 48:-0.81 49:-1 50:-1 51:-1 52:-1 53:-1 54:-1 55:-1 56:-1 57:-1 58:-1 59:-1 60:-0.63 61:-0.45 62:-0.45 63:-0.63 64:-0.63 65:-0.63 66:-0.63 67:-0.63 68:-0.63 69:-0.63 70:-0.63 71:-0.63 72:-0.63 73:-0.63 74:-0.63 75:-0.63 76:-0.63 77:-0.63 78:-0.63 79:-0.63 80:-0.567251 81:-0.63 82:-0.63 83:-0.63 84:-0.63 85:-0.63 86:-0.63 87:-0.63 88:-0.63 89:-0.63 90:-0.63 91:-0.63 92:-0.63 93:-0.63 94:-0.63 95:-0.63 96:-0.63 97:-0.27 98:-0.45 99:-1 100:-1 101:-1 102:-1 103:-1 104:-1 105:-1 106:-1 107:-1 108:-1 109:-0.81 110:-0.81 111:-0.81 112:-0.81 113:-0.45 114:0.27 115:1 
0 0 0 0.4979144433587512 0 2.917545133881383 0.6614714170030715 4.670252684141536 0 1:0.24 2:-0.13 3:-0.78 4:-0.94 5:-0.94 6:-0.94 7:-0.94 8:-1 9:-1 10:-1 11:-1 12:-1 13:-1 14:-1 15:-0.24 16:-0.18 17:-0.83 18:-0.83 19:-0.83 20:-0.78 21:-0.89 22:-0.78 23:-0.89 24:-0.89 25:-0.13 26:-0.13 27:-1 28:-1 29:-1 30:-1 31:-1 32:-1 33:-1 34:-1 35:-1 36:-1 37:-0.94 38:-0.94 39:-0.67 40:1 41:1 42:0.14 43:-0.42 44:-0.71 45:-0.71 46:-0.8 47:-0.85 48:-1 49:-1 50:-1 51:-1 52:-1 53:-1 54:-1 55:-1 56:-1 57:-1 58:-1 59:-1 60:-1 61:-1 62:-0.71 63:-0.57 64:-0.57 65:-0.57 66:-0.57 67:-0.71 68:-0.71 69:-0.71 70:-0.71 71:-0.71 72:-0.71 73:-0.71 74:-0.71 75:-0.71 76:-0.71 77:-0.71 78:-0.71 79:-0.71 80:-0.660819 81:-0.71 82:-0.71 83:-0.71 84:-0.71 85:-0.71 86:-0.71 87:-0.71 88:-0.71 89:-0.71 90:-0.71 91:-0.71 92:-0.71 93:-0.71 94:-0.71 95:-0.71 96:-0.71 97:-0.71 98:-0.71 99:-0.71 100:-0.71 101:-0.71 102:-0.71 103:-0.71 104:-0.71 105:-0.71 106:-0.71 107:-0.71 108:-0.71 109:-0.71 110:-0.14 111:-0.42 112:-0.71 113:-0.71 114:-0.71 115:-0.71 
0 2.240935171259537 2.061768951401449 0 0 6.461011403463294 0.6208706202250243 4.025402171079978 0.4100370503378862 1:-0.16 2:0.61 3:-0.83 4:-1 5:-1 6:-1 7:-0.94 8:-1 9:-1 10:-1 11:-1 12:-1 13:-0.77 14:0.05 15:-0.44 16:-0.88 17:-0.88 18:-0.88 19:-0.88 20:-0.88 21:-0.88 22:-0.88 23:-0.88 24:-0.88 25:-0.55 27:-0.33 28:-1 29:-1 30:-1 31:-1 32:-1 33:-0.94 34:-0.94 35:-0.88 36:-0.88 37:-0.88 38:-0.88 39:-0.61 40:1 41:0.17 42:-0.29 43:-0.76 44:-0.88 45:-0.88 46:-0.68 47:-0.76 48:-0.76 49:-0.862857 50:-1 51:-1 52:-1 53:-1 54:-1 55:-1 56:-1 57:-0.64 58:-0.41 59:-0.64 60:-0.76 61:-0.76 62:-0.76 63:-0.76 64:-0.76 65:-0.76 66:-0.76 67:-0.76 68:-0.76 69:-0.76 70:-0.76 71:-0.76 72:-0.76 73:-0.76 74:-0.76 75:-0.76 76:-0.76 77:-0.76 78:-0.76 79:-0.76 80:-0.719298 81:-0.76 82:-0.76 83:-0.76 84:-0.76 85:-0.76 86:-0.76 87:-0.76 88:-0.76 89:-0.76 90:-0.76 91:-0.76 92:-0.76 93:-0.76 94:-0.76 95:-0.76 96:-0.76 97:-0.76 98:-0.41 99:-0.29 100:-0.64 101:-1 102:-1 103:-1 104:-1 105:-1 106:-1 107:-1 108:-0.88 109:-0.88 110:-0.76 111:-0.88 112:-1 113:-0.88 114:-0.17 115:1 
3.652209073841806 0 0 0 0 4.756321508441837 0 0 0 1:-0.8 2:1 3:-0.53 4:-0.8 5:-0.86 6:-0.86 7:-0.86 8:-0.86 9:-0.93 10:-1 11:-1 12:-1 13:-1 14:-0.46 15:0.26 16:-0.73 17:-0.73 18:-0.8 19:-0.86 20:-0.86 21:-0.86 22:-0.86 23:-0.86 24:-0.86 25:-0.8 26:-0.73 27:-0.33 28:0.06 29:-0.46 30:-1 31:-1 32:-1 33:-1 34:-1 35:-1 36:-0.93 37:-0.66 38:0.33 39:-0.93 40:0.59 43:-0.57 44:-0.85 45:-0.85 46:-0.8 47:-0.85 48:-0.85 49:-1 50:-1 51:-1 52:-1 53:-1 54:-1 55:-1 56:-1 57:-0.85 58:-0.57 59:-0.42 60:-0.57 61:-0.57 62:-0.57 63:-0.71 64:-0.71 65:-0.71 66:-0.71 67:-0.71 68:-0.71 69:-0.71 70:-0.71 71:-0.71 72:-0.71 73:-0.71 74:-0.71 75:-0.71 76:-0.71 77:-0.71 78:-0.71 79:-0.71 80:-0.660819 81:-0.71 82:-0.71 83:-0.71 84:-0.71 85:-0.71 86:-0.71 87:-0.71 88:-0.71 89:-0.71 90:-0.71 91:-0.71 92:-0.71 93:-0.71 94:-0.71 95:-0.71 96:-0.57 97:-0.42 99:-1 100:-1 101:-1 102:-1 103:-1 104:-1 105:-1 106:-1 107:-1 108:-0.85 109:-0.85 110:-0.85 111:-0.85 112:-0.71 113:-0.71 114:-0.42 115:1 
0 0 0 0 0 0 0 0 2.478603106561563 1:-0.09 2:-0.22 3:-0.48 4:-0.87 5:-0.87 6:-0.87 7:-0.87 8:-0.93 9:-1 10:-1 11:-1 12:-1 13:-1 14:-1 15:-1 16:-0.61 17:-0.48 18:-0.74 19:-0.74 20:-0.8 21:-0.87 22:-0.87 23:-0.74 24:-0.35 25:-0.41 26:-0.8 27:-0.93 28:-1 29:-1 30:-1 31:-1 32:-1 33:-1 34:-1 35:-1 36:-0.93 37:-0.87 38:-0.87 39:-0.22 40:1 41:0.28 42:-0.28 43:-0.71 44:-0.71 45:-0.71 46:-0.613333 47:-0.71 48:-0.71 49:-0.828571 50:-0.662921 51:-1 52:-1 53:-1 54:-1 55:-1 56:-1 57:-1 58:-1 59:-1 60:-1 61:-1 62:-0.85 63:-0.71 64:-0.57 65:-0.57 66:-0.71 67:-0.71 68:-0.71 69:-0.71 70:-0.71 71:-0.71 72:-0.71 73:-0.71 74:-0.71 75:-0.71 76:-0.71 77:-0.71 78:-0.71 79:-0.71 80:-0.660819 81:-0.71 82:-0.71 83:-0.71 84:-0.71 85:-0.71 86:-0.71 87:-0.71 88:-0.71 89:-0.71 90:-0.71 91:-0.71 92:-0.71 93:-0.71 94:-0.57 95:-0.57 96:-0.85 97:-1 98:-1 99:-1 100:-1 101:-1 102:-1 103:-1 104:-1 105:-1 106:-1 107:-1 108:-1 109:-1 110:-0.85 111:-0.85 112:-0.71 113:-0.71 115:1 
0 3.321201920004596 6.32054540182353 0 2.737347737257654 5.153957446351563 0.1412015318090426 0 7.21715562270914 1:0.71 2:-0.35 3:-0.71 4:-0.71 5:-0.71 6:-0.71 7:-0.78 8:-0.78 9:-0.78 10:-0.85 11:-0.78 12:-0.21 13:-0.57 14:-0.85 15:-0.78 16:-0.85 17:-0.85 18:-0.85 19:-0.85 20:-0.78 21:-0.85 22:-0.85 23:-0.78 24:-0.71 25:-0.5 26:0.35 27:-0.57 28:-1 29:-1 30:-1 31:-1 32:-1 33:-1 34:-0.92 35:-0.92 36:-1 37:-0.64 38:-0.85 39:-0.5 40:1 41:1 42:-0.28 43:-0.85 44:-0.71 45:-0.85 46:-1 47:-1 48:-1 49:-1 50:-1 51:-1 52:-1 53:-1 54:-1 55:-1 56:-1 57:-1 58:-0.71 59:-0.57 60:-0.57 61:-0.57 62:-0.14 63:0.57 64:-0.42 65:-1 66:-1 67:-0.57 68:-0.28 69:-0.71 70:-0.71 71:-0.71 72:-0.71 73:-0.71 74:-0.71 75:-0.71 76:-0.71 77:-0.71 78:-0.71 79:-0.71 80:-0.660819 81:-0.71 82:-0.71 83:-0.71 84:-0.71 85:-0.71 86:-0.71 87:-0.71 88:-0.71 89:-0.71 90:-0.71 91:-0.71 92:-0.71 93:-0.71 94:-0.71 95:-0.57 96:-0.42 97:-0.71 98:-1 99:-1 100:-1 101:-1 102:-1 103:-1 104:-1 105:-1 106:-1 107:-1 108:-0.85 109:-0.85 110:-0.85 111:-0.85 112:-0.85 113:-0.71 114:-0.14 115:0.71 
0 0 2.321007943402754 0 0 0 0 2.277848325405946 3.49733152483034 1:-0.7 2:-0.76 3:-0.05 4:-0.11 5:-0.94 6:-0.94 7:-0.94 8:-0.94 9:-1 10:-1 11:-1 12:-1 13:-1 14:-1 15:-1 16:-1 17:-0.29 18:-0.41 19:-0.76 20:-0.76 21:-0.76 22:-0.88 23:-0.88 24:-0.82 25:-0.76 26:-0.17 27:-0.52 28:-0.88 29:-1 30:-1 31:-1 32:-1 33:-1 34:-1 35:-0.94 36:-0.94 37:-0.94 38:-0.88 39:-0.47 40:1 41:0.71 42:0.14 43:-0.42 44:-0.85 45:-0.85 46:-0.8 47:-0.85 48:-1 49:-1 50:-1 51:-1 52:-1 53:-1 54:-1 55:-1 56:-1 57:-1 58:-1 59:-1 60:-0.71 61:-0.42 62:-0.42 63:-0.57 64:-0.71 65:-0.71 66:-0.71 67:-0.71 68:-0.71 69:-0.71 70:-0.71 71:-0.71 72:-0.71 73:-0.71 74:-0.71 75:-0.71 76:-0.71 77:-0.71 78:-0.71 79:-0.71 80:-0.660819 81:-0.71 82:-0.71 83:-0.71 84:-0.71 85:-0.71 86:-0.71 87:-0.71 88:-0.71 89:-0.71 90:-0.71 91:-0.71 92:-0.71 93:-0.71 94:-0.71 95:-0.71 96:-0.71 97:-0.57 98:-0.57 99:-0.85 100:-1 101:-1 102:-1 103:-1 104:-1 105:-1 106:-1 107:-1 108:-1 109:-1 110:-0.85 111:-0.71 112:-0.71 113:-0.71 114:-0.14 115:1 
0 0 0 0 1.753923391197022 0 0 1.568233068225279 2.392060210155074 1:0.15 2:0.47 3:0.15 4:-0.68 5:-0.78 6:-0.89 7:-1 8:-1 9:-1 10:-1 11:-1 12:-1 13:-1 14:-1 15:-1 16:-0.89 17:-0.68 18:0.05 19:-0.15 20:-0.78 21:-0.78 22:0.05 23:0.36 24:-0.89 25:-1 26:-1 27:-1 28:-1 29:-1 30:-1 31:-1 32:-1 33:-1 34:-1 35:-1 36:-1 37:-0.89 38:0.47 39:1 40:0.05 41:0.33 42:-0.33 43:-0.73 44:-0.73 45:-0.86 46:-0.813333 47:-0.86 48:-0.86 49:-0.84 50:-1 51:-1 52:-1 53:-1 54:-1 55:-1 56:-1 57:-1 58:-1 59:-1 60:-1 61:-1 62:-1 63:-1 64:-0.86 65:-0.73 66:-0.73 67:-0.73 68:-0.73 69:-0.73 70:-0.73 71:-0.73 72:-0.73 73:-0.73 74:-0.73 75:-0.73 76:-0.73 77:-0.73 78:-0.73 79:-0.73 80:-0.684211 81:-0.73 82:-0.73 83:-0.73 84:-0.73 85:-0.73 86:-0.73 87:-0.73 88:-0.73 89:-0.73 90:-0.73 91:-0.73 92:-0.73 93:-0.73 94:-0.73 95:-0.86 96:-1 97:-1 98:-1 99:-1 100:-1 101:-1 102:-1 103:-1 104:-1 105:-1 106:-1 107:-1 108:-1 109:-1 110:-1 111:-1 112:-0.86 113:-0.73 114:0.06 115:1 
7.145373955978165 1.23730775171335 0 0 0 2.868655333903592 0 2.895002606338042 2.244692828056085 1:-0.44 2:0.16 3:-0.55 4:-0.88 5:-0.94 6:-0.94 7:-0.94 8:-1 9:-1 10:-1 11:-1 12:-1 13:-1 14:-1 15:-1 16:-0.83 17:-0.22 18:-0.66 19:-0.61 20:-0.77 21:-0.88 22:-0.88 23:-0.88 24:-0.61 25:0.05 26:-0.77 27:-1 28:-1 29:-1 30:-1 31:-1 32:-1 33:-1 34:-1 35:-1 36:-0.94 37:-0.88 38:-0.83 39:-0.55 40:1 41:0.23 42:-0.33 43:-0.71 44:-0.8 45:-0.8 46:-0.866667 47:-0.9 48:-1 49:-1 50:-1 51:-1 52:-1 53:-1 54:-1 55:-1 56:-1 57:-1 58:-1 59:-0.71 60:-0.8 61:-0.8 62:-0.8 63:-0.8 64:-0.8 65:-0.8 66:-0.8 67:-0.8 68:-0.8 69:-0.8 70:-0.8 71:-0.8 72:-0.8 73:-0.8 74:-0.8 75:-0.8 76:-0.8 77:-0.8 78:-0.8 79:-0.8 80:-0.766082 81:-0.8 82:-0.8 83:-0.8 84:-0.8 85:-0.8 86:-0.8 87:-0.8 88:-0.8 89:-0.8 90:-0.8 91:-0.8 92:-0.8 93:-0.8 94:-0.8 95:-0.8 96:-0.71 97:-0.42 98:-0.9 99:-1 100:-1 101:-1 102:-1 103:-1 104:-1 105:-1 106:-1 107:-1 108:-1 109:-1 110:-1 111:-1 112:-1 113:-0.9 114:-0.33 115:1 
5.168383525356883 1.454692188462993 0 0 6.235232189549784 27.17958867048667 0 8.298515105808145 2.705375333537551 1:-0.04 2:1 3:-0.73 4:-0.82 5:-0.82 6:-0.82 7:-0.82 8:-0.82 9:-0.91 10:-1 11:-1 12:-1 13:-1 14:-1 15:-0.91 16:-0.56 17:-0.39 18:-0.56 19:-0.65 20:-0.65 21:-0.65 22:-0.65 23:-0.65 24:-0.47 25:-0.47 26:-0.47 27:-0.65 28:-0.82 29:-0.82 30:-0.82 31:-0.82 32:-0.82 33:-0.82 34:-0.73 35:-0.56 36:-0.47 37:0.13 38:-0.65 39:-0.21 40:-0.3 41:-0.62 42:-0.12 43:-0.37 44:-0.75 45:-0.75 46:-0.666667 47:-0.75 48:-0.75 49:-0.851429 50:-1 51:-1 52:-1 53:-1 54:-1 55:-1 56:-1 57:-1 58:-1 59:-0.75 60:-0.5 61:-0.5 62:-0.37 63:0.12 64:-0.62 65:-1 66:-0.75 67:0.25 68:-0.75 69:-0.87 70:-0.87 71:-0.87 72:-0.87 73:-0.87 74:-0.87 75:-1 76:-1 77:-1 78:-1 79:-1 80:-1 81:-1 82:-1 83:-0.87 84:-0.62 85:-0.5 86:-0.62 87:-0.75 88:-0.75 89:-0.75 90:-0.75 91:-0.75 92:-0.75 93:-0.75 94:-0.75 95:-0.75 96:-0.75 97:-0.62 98:-0.62 99:-1 100:-1 101:-1 102:-1 103:-1 104:-1 105:-1 106:-1 107:-1 108:-1 109:-0.87 110:-0.87 111:-0.75 112:-0.75 113:-0.62 114:-0.12 115:1 
8.824688264532403 0 6.908301095147185 3.877165044285723 0.7370854192580242 0 0 4.086964397712498 5.16599350589603 1:0.23 2:-0.38 3:-0.69 4:-0.69 5:-0.84 6:-0.84 7:-0.84 8:-1 9:-1 10:-1 11:-1 12:-1 13:-1 14:-1 15:-1 16:-1 17:-0.53 18:0.53 19:-0.07 20:-0.69 21:-0.69 22:-0.53 23:-0.53 24:-0.84 25:-1 26:-1 27:-1 28:-1 29:-1 30:-1 31:-1 32:-1 33:-0.84 34:-0.84 35:-1 36:-1 37:-0.69 38:0.69 39:1 40:0.23 44:-0.33 45:-0.66 46:-0.546667 47:-0.66 48:-0.66 49:-0.805714 50:-0.617978 51:-0.701754 52:-0.67619 53:-1 54:-1 55:-1 56:-1 57:-1 58:-1 59:-1 60:-1 61:-1 62:-1 63:-1 64:-1 65:-1 66:-1 67:-0.66 68:-0.66 69:-0.66 70:-0.83 71:-0.83 72:-0.83 73:-0.83 74:-0.83 75:-0.83 76:-0.83 77:-0.83 78:-0.83 79:-0.83 80:-0.80117 81:-0.83 82:-0.83 83:-0.83 84:-0.83 85:-0.66 86:-0.66 87:-0.66 88:-0.66 89:-0.5 90:-0.5 91:-0.66 92:-0.83 93:-0.83 94:-0.83 95:-0.83 96:-0.83 97:-0.83 98:-0.83 99:-0.83 100:-0.83 101:-0.83 102:-0.83 103:-0.83 104:-0.83 105:-0.83 106:-0.83 107:-0.83 108:-0.66 109:-0.66 110:-0.66 111:-0.66 112:-0.66 113:-0.5 114:0.16 115:1 
0.196435242762473 0 0 0 0 0 0 0 0 1:-0.23 2:0.76 3:-0.53 4:-0.84 5:-0.84 6:-0.84 7:-0.84 8:-0.84 9:-0.92 10:-1 11:-1 12:-1 13:-1 14:-0.3 15:-0.15 16:-0.53 17:-0.69 18:-0.69 19:-0.76 20:-0.84 21:-0.84 22:-0.84 23:-0.84 24:-0.76 25:-0.38 27:-0.3 28:-1 29:-1 30:-1 31:-1 32:-1 33:-1 34:-0.92 35:-0.92 36:-0.84 37:-0.84 38:-0.46 39:1 40:-0.3 41:-0.11 42:-0.44 43:-0.66 44:-0.77 45:-0.77 46:-0.693333 47:-0.77 48:-0.88 49:-0.862857 50:-0.730337 51:-1 52:-1 53:-1 54:-1 55:-1 56:-1 57:-1 58:-0.88 59:-0.66 60:-0.55 61:-0.55 62:-0.66 63:-0.77 64:-0.77 65:-0.77 66:-0.77 67:-0.77 68:-0.77 69:-0.77 70:-0.77 71:-0.77 72:-0.77 73:-0.77 74:-0.77 75:-0.77 76:-0.77 77:-0.77 78:-0.77 79:-0.77 80:-0.730994 81:-0.77 82:-0.77 83:-0.77 84:-0.77 85:-0.77 86:-0.77 87:-0.77 88:-0.77 89:-0.77 90:-0.77 91:-0.77 92:-0.77 93:-0.77 94:-0.77 95:-0.77 96:-0.66 97:-0.66 98:-0.55 99:-0.88 100:-1 101:-1 102:-1 103:-1 104:-1 105:-1 106:-1 107:-1 108:-1 109:-0.88 110:-0.77 111:-0.77 112:-0.88 113:-0.88 114:-0.44 115:1 
0.753488726581234 1.602141030700892 0.6076512226554887 0.8997502213016925 0 1.014471233302245 0.4384276843505215 0.4124538667520145 0.6231199937581545 1:-0.44 2:0.92 3:-0.44 4:-0.92 5:-0.92 6:-0.92 7:-0.92 8:-0.92 9:-1 10:-1 11:-1 12:-1 13:-1 14:-0.59 15:-0.2 16:-0.35 17:-0.68 18:-0.68 19:-0.76 20:-0.83 21:-0.83 22:-0.83 23:-0.76 24:-0.68 25:0.11 26:-0.04 27:-1 28:-1 29:-1 30:-1 31:-1 32:-1 33:-1 34:-0.92 35:-0.92 36:-0.92 37:-0.92 38:-0.44 39:1 40:-0.28 41:0.2 42:0.59 43:1 44:0.59 45:-0.2 46:0.0666667 47:-0.2 48:-0.59 49:-0.531429 50:-0.0786517 51:-0.280702 52:-0.219048 53:-0.280702 54:-1 55:-1 56:-1 57:-1 58:-1 59:-1 60:-1 61:-1 62:-1 63:-1 64:-1 65:-0.59 66:0.2 67:0.59 68:0.2 69:0.2 70:0.2 71:-0.2 72:-0.2 73:-0.2 74:-0.2 75:-0.2 76:-0.2 77:-0.2 78:-0.2 79:-0.2 80:-0.0643275 81:-0.2 82:-0.2 83:-0.2 84:-0.2 85:-0.2 86:-0.2 87:-0.2 88:-0.2 89:-0.2 90:-0.2 91:-0.2 92:-0.2 93:-0.2 94:-0.2 95:-0.2 96:-0.2 97:-0.2 98:-0.2 99:-0.2 100:-0.2 101:-0.2 102:-0.2 103:-0.2 104:-0.2 105:-0.2 106:-0.2 107:-0.2 108:0.2 109:0.2 110:0.59 111:-0.2 112:-1 113:-1 114:-1 115:-1 
0 1.313138839472767 0.002552841897776607 0 0 0.798504221553322 0 0 0 1:1 2:-0.47 3:-0.88 4:-0.94 5:-0.94 6:-1 7:-1 8:-1 9:-1 10:-1 11:-1 12:-1 13:-1 14:-0.64 15:-0.23 16:-0.58 17:-0.82 18:-0.82 19:-0.88 20:-0.88 21:-0.88 22:-0.82 23:-0.76 24:-0.47 25:-0.23 26:-0.47 27:-1 28:-1 29:-1 30:-1 31:-1 32:-1 33:-1 34:-1 35:-0.94 36:-0.94 37:-0.94 38:-0.82 39:-0.35 40:0.76 41:1 42:0.42 43:0.14 44:-0.42 45:-0.42 46:-0.226667 47:-0.42 48:-0.42 49:-0.668571 50:-1 51:-1 52:-1 53:-1 54:-1 55:-1 56:-1 57:-1 58:-1 59:-1 60:-1 61:-1 62:-1 63:-0.71 64:-0.14 65:0.14 66:0.14 67:0.14 68:-0.42 69:-0.42 70:-0.42 71:-0.42 72:-0.42 73:-0.42 74:-0.42 75:-0.42 76:-0.42 77:-0.42 78:-0.42 79:-0.42 80:-0.321637 81:-0.42 82:-0.42 83:-0.42 84:-0.42 85:-0.42 86:-0.42 87:-0.42 88:-0.42 89:-0.42 90:-0.42 91:-0.42 92:-0.42 93:-0.42 94:-0.42 95:-0.42 96:-0.42 97:-0.42 98:-0.42 99:-0.42 100:-0.42 101:-0.42 102:-0.42 103:-0.42 104:-0.42 105:-0.42 106:-0.42 107:-0.42 108:-0.14 109:-0.42 110:-1 111:-1 112:-1 113:-1 114:-1 115:-1 
0 0 0 0.13338710378433 0 0 0 0 0 1:1 2:-0.61 3:-0.94 4:-0.94 5:-0.94 6:-0.94 7:-1 8:-1 9:-1 10:-1 11:-1 12:-1 13:-1 14:-0.61 16:-0.83 17:-0.83 18:-0.83 19:-0.88 20:-0.88 21:-0.88 22:-0.88 23:-0.88 24:-0.72 25:0.44 26:-0.72 27:-1 28:-1 29:-1 30:-1 31:-1 32:-1 33:-1 34:-1 35:-1 36:-1 37:-1 38:-0.66 39:0.27 40:-0.05 41:1 42:0.07 43:-0.53 44:-0.69 45:-0.69 46:-0.586667 47:-0.69 48:-0.69 49:-0.645714 50:-1 51:-1 52:-1 53:-1 54:-1 55:-1 56:-1 57:-1 58:-1 59:-1 60:-1 61:-1 62:-0.69 63:-0.53 64:-0.38 65:-0.38 66:-0.69 67:-0.69 68:-0.69 69:-0.69 70:-0.69 71:-0.69 72:-0.69 73:-0.69 74:-0.69 75:-0.69 76:-0.69 77:-0.69 78:-0.69 79:-0.69 80:-0.637427 81:-0.69 82:-0.69 83:-0.69 84:-0.69 85:-0.69 86:-0.69 87:-0.69 88:-0.69 89:-0.69 90:-0.69 91:-0.69 92:-0.69 93:-0.69 94:-0.69 95:-0.69 96:-0.69 97:-0.69 98:-0.69 99:-0.69 100:-0.69 101:-0.69 102:-0.69 103:-0.69 104:-0.69 105:-0.69 106:-0.69 107:-0.69 108:-0.69 109:-0.69 110:-0.69 111:-0.38 112:-0.38 113:-0.84 114:-1 115:-1 
0 0 0 0.9913399170113162 0 4.875149579913 0 3.091106548958073 1.037305508577071 1:1 2:-0.59 3:-0.94 4:-0.94 5:-1 6:-1 7:-1 8:-1 9:-1 10:-1 11:-1 12:-1 13:-1 14:-0.88 15:-0.65 16:-0.48 17:-0.25 18:-0.77 19:-0.88 20:-0.88 21:-0.88 22:-0.88 23:-0.77 24:-0.31 25:-0.02 26:-0.82 27:-1 28:-1 29:-1 30:-1 31:-1 32:-1 33:-1 34:-0.94 35:-1 36:-1 37:-1 38:-0.65 39:0.2 40:0.02 41:1 42:0.09 43:-0.63 44:-0.63 45:-0.63 46:-0.506667 47:-0.63 48:-0.81 49:-0.782857 50:-0.573034 51:-1 52:-1 53:-1 54:-1 55:-1 56:-1 57:-1 58:-1 59:-1 60:-1 61:-1 62:-1 63:-0.63 64:-0.27 65:-0.27 66:-0.45 67:-0.63 68:-0.63 69:-0.63 70:-0.63 71:-0.63 72:-0.63 73:-0.63 74:-0.63 75:-0.63 76:-0.63 77:-0.63 78:-0.63 79:-0.63 80:-0.567251 81:-0.63 82:-0.63 83:-0.63 84:-0.63 85:-0.63 86:-0.63 87:-0.63 88:-0.63 89:-0.63 90:-0.63 91:-0.63 92:-0.63 93:-0.63 94:-0.63 95:-0.63 96:-0.63 97:-0.63 98:-0.63 99:-0.63 100:-0.63 101:-0.63 102:-0.63 103:-0.63 104:-0.63 105:-0.63 106:-0.63 107:-0.63 108:-0.63 109:-0.45 110:0.09 111:-0.45 112:-1 113:-1 114:-1 115:-1 
0 0.622022639235331 0 0 1.618220847591258 1.797229313364501 0 0 0.1357198946310868 1:-0.31 2:-0.12 3:-0.31 4:-0.81 5:-0.81 6:-0.87 7:-0.93 8:-1 9:-1 10:-1 11:-1 12:-1 13:-1 14:-1 15:-1 16:-1 17:-0.56 18:-0.43 19:-0.75 20:-0.81 21:-0.87 22:-0.87 23:-0.87 24:-0.5 25:0.12 26:-0.68 27:-1 28:-1 29:-1 30:-1 31:-1 32:-1 33:-1 34:-1 35:-1 36:-1 37:-0.93 38:-0.87 39:-0.25 40:1 41:1 42:0.2 43:-0.59 44:-0.59 45:-0.8 46:-0.733333 47:-1 48:-1 49:-1 50:-1 51:-1 52:-1 53:-1 54:-1 55:-1 56:-1 57:-1 58:-1 59:-1 60:-1 61:-1 62:-1 63:-1 64:-0.59 65:-0.4 66:-0.4 67:-0.59 68:-0.59 69:-0.59 70:-0.59 71:-0.59 72:-0.59 73:-0.59 74:-0.59 75:-0.59 76:-0.59 77:-0.59 78:-0.59 79:-0.59 80:-0.520468 81:-0.59 82:-0.59 83:-0.59 84:-0.59 85:-0.59 86:-0.59 87:-0.59 88:-0.59 89:-0.59 90:-0.59 91:-0.59 92:-0.59 93:-0.59 94:-0.59 95:-0.59 96:-0.59 97:-0.59 98:-0.59 99:-0.4 100:-0.59 101:-1 102:-1 103:-1 104:-1 105:-1 106:-1 107:-1 108:-1 109:-1 110:-1 111:-1 112:-1 113:-1 114:-1 115:-1 
0 1.619205451970851 0 0.125052767605568 0 0 0 0 2.023868623996657 1:0.8 2:-0.29 3:-0.93 4:-0.93 5:-0.93 6:-0.93 7:-0.93 8:-1 9:-1 10:-1 11:-1 12:-1 13:-1 14:-1 15:-1 16:-0.54 17:-0.41 18:-0.74 19:-0.74 20:-0.8 21:-0.87 22:-0.87 23:-0.67 24:-0.22 25:-0.41 26:-1 27:-1 28:-1 29:-1 30:-1 31:-1 32:-1 33:-1 34:-1 35:-1 36:-0.93 37:-0.93 38:-0.93 39:-0.29 40:1 41:1 42:0.42 43:0.14 44:-0.14 45:-0.42 46:-0.226667 47:-0.42 48:-0.42 49:-0.337143 50:-0.348315 51:-1 52:-1 53:-1 54:-1 55:-1 56:-1 57:-1 58:-1 59:-1 60:-1 61:-1 62:-1 63:-1 64:-1 65:-1 66:-1 67:-0.71 68:-0.42 69:-0.42 70:-0.42 71:-0.42 72:-0.42 73:-0.42 74:-0.42 75:-0.42 76:-0.42 77:-0.42 78:-0.42 79:-0.42 80:-0.321637 81:-0.42 82:-0.42 83:-0.42 84:-0.42 85:-0.42 86:-0.42 87:-0.42 88:-0.42 89:-0.42 90:-0.42 91:-0.42 92:-0.42 93:-0.42 94:-0.42 95:-0.42 96:-0.42 97:-0.42 98:-0.42 99:-0.42 100:-0.42 101:-0.42 102:-0.42 103:-0.14 104:-0.14 105:-0.42 106:-0.71 107:-1 108:-1 109:-1 110:-1 111:-1 112:-1 113:-1 114:-1 115:-1 
0 0 6.183642549965105 0 0 0 0 0 3.515757182171114 1:0.15 2:-0.46 3:-0.92 4:-0.92 5:-0.92 6:-0.92 7:-0.92 8:-1 9:-1 10:-1 11:-1 12:-1 13:-1 14:-1 15:-0.84 16:-0.3 17:-0.46 18:-0.69 19:-0.69 20:-0.76 21:-0.84 22:-0.76 23:-0.69 24:-0.3 25:-0.15 26:-0.76 27:-1 28:-1 29:-1 30:-1 31:-1 32:-1 33:-1 34:-1 35:-0.92 36:-0.92 37:-0.84 38:-0.84 39:-0.15 40:1 41:0.69 42:-0.07 43:-0.69 44:-0.69 45:-0.69 46:-0.786667 47:-1 48:-1 49:-1 50:-1 51:-1 52:-1 53:-1 54:-1 55:-1 56:-1 57:-1 58:-1 59:-1 60:-1 61:-1 62:-0.84 63:-0.53 64:-0.53 65:-0.53 66:-0.69 67:-0.69 68:-0.84 69:-0.84 70:-0.84 71:-0.84 72:-0.84 73:-0.84 74:-0.84 75:-0.84 76:-0.84 77:-0.84 78:-0.84 79:-0.84 80:-0.812865 81:-0.84 82:-0.84 83:-0.84 84:-0.84 85:-0.84 86:-0.84 87:-0.69 88:-0.69 89:-0.69 90:-0.69 91:-0.69 92:-0.53 93:-0.38 94:-0.53 95:-0.53 96:-0.84 97:-1 98:-1 99:-1 100:-1 101:-1 102:-1 103:-1 104:-1 105:-1 106:-1 107:-0.84 108:-1 109:-1 110:-1 111:-0.84 112:-0.84 113:-0.69 114:0.07 115:1 
0 0 0 0 0 0 0 0 1.698768399056626 1:-0.04 2:0.71 3:0.04 4:-0.71 5:-0.71 6:-0.71 7:-0.71 8:-0.8 9:-0.9 10:-0.9 11:-0.9 12:-0.9 13:-1 14:-1 15:-1 16:-0.33 17:-0.04 18:-0.61 19:-0.61 20:-0.8 21:-0.8 22:-0.71 23:-0.71 24:0.23 25:-0.14 26:-1 27:-1 28:-1 29:-0.9 30:-0.9 31:-0.9 32:-0.9 33:-0.9 34:-0.8 35:-0.8 36:-0.8 37:-0.71 38:0.33 39:1 40:-0.23 41:1 42:0.11 43:-0.33 44:-0.55 45:-0.55 46:-0.693333 47:-0.77 48:-0.77 49:-0.737143 50:-0.483146 51:-1 52:-1 53:-1 54:-1 55:-1 56:-1 57:-1 58:-1 59:-1 60:-1 61:-1 62:-0.77 63:-0.55 64:-0.33 65:-0.55 66:-0.55 67:-0.55 68:-0.55 69:-0.55 70:-0.55 71:-0.55 72:-0.55 73:-0.55 74:-0.55 75:-0.55 76:-0.55 77:-0.55 78:-0.55 79:-0.55 80:-0.473684 81:-0.55 82:-0.55 83:-0.55 84:-0.55 85:-0.55 86:-0.55 87:-0.55 88:-0.55 89:-0.55 90:-0.55 91:-0.55 92:-0.55 93:-0.55 94:-0.55 95:-0.55 96:-0.55 97:-0.77 98:-1 99:-1 100:-1 101:-1 102:-1 103:-1 104:-1 105:-1 106:-1 107:-1 108:-1 109:-0.77 110:-0.77 111:-0.77 112:-0.77 113:-0.55 114:-0.33 115:-0.11 
0 2.203993306113948 0 0 0 0 0.2045736273864773 3.85638455207298 0 2:0.1 4:-0.4 5:-0.8 6:-0.9 7:-0.9 8:-0.9 9:-1 10:-1 11:-1 12:-1 13:-1 14:-1 15:-0.59 16:-0.1 18:-0.69 19:-0.8 20:-0.8 21:-0.8 22:-0.8 23:-0.69 24:-0.29 26:-0.2 27:-0.69 28:-1 29:-1 30:-1 31:-1 32:-1 33:-1 34:-1 35:-0.8 36:-1 37:-1 38:-0.59 39:0.29 40:1 41:-0.57 42:-0.36 43:-0.36 44:-0.78 45:-0.89 46:-0.853333 47:-0.78 48:-0.89 49:-1 50:-1 51:-1 52:-1 53:-1 54:-1 55:-1 56:-1 57:-1 58:-1 59:-1 60:-1 61:-0.89 62:-0.68 63:-0.57 64:-0.68 65:-0.78 66:-0.78 67:-0.78 68:-0.78 69:-0.78 70:-0.78 71:-0.78 72:-0.78 73:-0.78 74:-0.78 75:-0.78 76:-0.78 77:-0.78 78:-0.78 79:-0.78 80:-0.74269 81:-0.78 82:-0.78 83:-0.78 84:-0.78 85:-0.78 86:-0.78 87:-0.78 88:-0.78 89:-0.78 90:-0.78 91:-0.78 92:-0.78 93:-0.78 94:-0.78 95:-0.78 96:-0.57 97:-0.47 98:-0.89 99:-1 100:-1 101:-1 102:-1 103:-1 104:-1 105:-1 106:-1 107:-1 108:-1 109:-1 110:-1 111:-1 112:-0.89 113:-0.89 114:-0.26 115:1 
0 0 0 0 0 0 0 0 0.6792108548733331 1:1 2:-0.52 3:-0.88 4:-0.88 5:-0.94 6:-1 7:-1 8:-1 9:-1 10:-1 11:-1 12:-1 13:-1 14:-1 15:-0.35 17:-0.82 18:-0.88 19:-0.88 20:-0.88 21:-0.88 22:-0.88 23:-0.82 24:-0.82 26:-0.35 27:-1 28:-1 29:-1 30:-1 31:-1 32:-1 33:-1 34:-1 35:-1 36:-0.94 37:-0.88 38:-0.82 39:-0.41 40:0.88 41:-0.57 42:0.42 43:0.14 44:-1 45:-1 46:-1 47:-0.85 48:-1 49:-1 50:-1 51:-1 52:-1 53:-1 54:-1 55:-1 56:-1 57:-1 58:-1 59:-1 60:-0.71 61:-0.42 62:-0.57 63:-0.57 64:-0.71 65:-0.71 66:-0.71 67:-0.71 68:-0.71 69:-0.71 70:-0.71 71:-0.71 72:-0.71 73:-0.71 74:-0.71 75:-0.71 76:-0.71 77:-0.71 78:-0.71 79:-0.71 80:-0.660819 81:-0.71 82:-0.71 83:-0.71 84:-0.71 85:-0.71 86:-0.71 87:-0.71 88:-0.71 89:-0.71 90:-0.71 91:-0.71 92:-0.71 93:-0.71 94:-0.71 95:-0.71 96:-0.42 97:-0.14 98:-0.85 99:-1 100:-1 101:-1 102:-1 103:-1 104:-1 105:-1 106:-1 107:-1 108:-1 109:-1 110:-1 111:-1 112:-0.85 113:-0.42 114:0.14 115:1 
0 2.164382839795421 0 0 1.495300514018739 0 0 5.056764899796613 0 1:-0.04 2:-0.23 3:-0.61 4:-0.85 5:-0.9 6:-0.9 7:-0.95 8:-0.95 9:-1 10:-1 11:-1 12:-1 13:-1 14:-0.9 15:-0.71 16:-0.71 17:-0.42 18:-0.61 19:-0.9 20:-0.9 21:-0.9 22:-0.9 23:-0.9 24:-0.9 25:-0.9 26:-0.9 27:-0.09 28:-0.33 29:-1 30:-1 31:-1 32:-1 33:-1 34:-1 35:-1 36:-1 37:-0.95 38:-0.95 39:-0.61 40:1 41:1 42:-0.46 43:-0.86 44:-0.73 45:-1 46:-1 47:-1 48:-1 49:-1 50:-1 51:-1 52:-1 53:-1 54:-1 55:-1 56:-1 57:-0.59 58:-0.73 59:-0.73 60:-0.73 61:-0.73 62:-0.73 63:-0.73 64:-0.73 65:-0.73 66:-0.73 67:-0.73 68:-0.73 69:-0.73 70:-0.73 71:-0.73 72:-0.73 73:-0.73 74:-0.73 75:-0.73 76:-0.73 77:-0.73 78:-0.73 79:-0.73 80:-0.684211 81:-0.73 82:-0.73 83:-0.73 84:-0.73 85:-0.73 86:-0.73 87:-0.73 88:-0.73 89:-0.73 90:-0.73 91:-0.73 92:-0.73 93:-0.73 94:-0.73 95:-0.73 96:-0.73 97:-0.33 98:-0.46 99:-1 100:-1 101:-1 102:-1 103:-1 104:-1 105:-1 106:-1 107:-1 108:-1 109:-1 110:-0.86 111:-0.86 112:-0.86 113:-0.06 114:0.46 115:-0.06 
0 1.410155846530749 0 0 7.117829519552868 0 0.1654913241162596 0.08691922752805266 0 1:0.22 2:0.44 3:-0.83 4:-0.94 5:-0.94 6:-0.94 7:-1 8:-1 9:-1 10:-1 11:-1 12:-1 13:-0.88 14:-0.33 15:-0.16 16:-0.83 17:-0.88 18:-0.88 19:-0.88 20:-0.88 21:-0.88 22:-0.88 23:-0.88 24:-0.88 25:-0.33 27:-0.72 28:-1 29:-1 30:-1 31:-1 32:-1 33:-1 34:-1 35:-1 36:-0.94 37:-0.83 38:-0.83 39:1 40:-0.5 41:1 42:0.06 43:-0.59 44:-0.73 45:-0.86 46:-0.813333 47:-0.86 48:-0.86 49:-1 50:-1 51:-1 52:-1 53:-1 54:-1 55:-1 56:-1 57:-1 58:-0.86 59:-0.59 60:-0.46 61:-0.59 62:-0.73 63:-0.73 64:-0.73 65:-0.73 66:-0.73 67:-0.73 68:-0.73 69:-0.73 70:-0.73 71:-0.73 72:-0.73 73:-0.73 74:-0.73 75:-0.73 76:-0.73 77:-0.73 78:-0.73 79:-0.73 80:-0.684211 81:-0.73 82:-0.73 83:-0.73 84:-0.73 85:-0.73 86:-0.73 87:-0.73 88:-0.73 89:-0.73 90:-0.73 91:-0.73 92:-0.73 93:-0.73 94:-0.73 95:-0.73 96:-0.73 97:-0.73 98:-0.73 99:-0.73 100:-0.73 101:-0.73 102:-0.59 103:-0.33 104:-0.2 105:-1 106:-1 107:-1 108:-1 109:-1 110:-1 111:-1 112:-1 113:-1 114:-1 115:-1 
0.0446189777337849 0 0.3170065548310697 0 0 1.106785949487046 0 0 0 1:-0.48 2:0.82 3:-0.65 4:-0.88 5:-0.94 6:-1 7:-1 8:-1 9:-1 10:-1 11:-1 12:-1 13:-1 14:0.14 15:-0.37 16:-0.82 17:-0.88 18:-0.88 19:-0.88 20:-0.88 21:-0.88 22:-0.88 23:-0.88 24:-0.88 25:-0.82 26:-0.2 27:-0.02 28:-1 29:-1 30:-1 31:-1 32:-1 33:-1 34:-1 35:-1 36:-1 37:-0.82 38:-0.82 39:1 40:-0.42 41:1 42:0.25 43:0.25 44:-0.25 45:-0.5 46:-0.333333 47:-0.5 48:-0.75 49:-1 50:-1 51:-1 52:-1 53:-1 54:-1 55:-1 56:-1 57:-1 61:-0.25 62:-0.5 63:-0.5 64:-0.5 65:-0.5 66:-0.5 67:-0.5 68:-0.5 69:-0.5 70:-0.5 71:-0.5 72:-0.5 73:-0.5 74:-0.5 75:-0.5 76:-0.5 77:-0.5 78:-0.5 79:-0.5 80:-0.415205 81:-0.5 82:-0.5 83:-0.5 84:-0.5 85:-0.5 86:-0.5 87:-0.5 88:-0.5 89:-0.5 90:-0.5 91:-0.5 92:-0.5 93:-0.5 94:-0.5 95:-0.5 96:-0.5 97:-0.5 98:-0.5 99:-0.5 100:-0.5 101:-0.5 102:-0.25 103:0.75 104:0.25 105:-0.75 106:-1 107:-1 108:-1 109:-1 110:-1 111:-1 112:-1 113:-1 114:-1 115:-1 
0 0 0.8168597202094711 0 0 1.672578599095008 0 0 0.7326797292987778 1:1 2:-0.51 3:-0.89 4:-0.89 5:-0.94 6:-0.94 7:-1 8:-1 9:-1 10:-1 11:-1 12:-1 13:-1 14:0.13 15:-0.4 16:-0.83 17:-0.83 18:-0.89 19:-0.89 20:-0.89 21:-0.89 22:-0.89 23:-0.89 24:-0.89 25:-0.67 26:-0.13 27:-0.13 28:-1 29:-1 30:-1 31:-1 32:-1 33:-1 34:-0.94 35:-0.94 36:-0.94 37:-0.89 38:-0.89 39:1 40:-0.51 41:0.59 42:0.59 43:-0.2 44:-0.59 45:-0.59 46:-0.733333 47:-0.8 48:-1 49:-1 50:-1 51:-1 52:-1 53:-1 54:-1 55:-1 56:-1 57:-0.2 58:-0.2 59:-0.4 60:-0.59 61:-0.59 62:-0.59 63:-0.59 64:-0.59 65:-0.59 66:-0.59 67:-0.59 68:-0.59 69:-0.59 70:-0.59 71:-0.59 72:-0.59 73:-0.59 74:-0.59 75:-0.59 76:-0.59 77:-0.59 78:-0.59 79:-0.59 80:-0.520468 81:-0.59 82:-0.59 83:-0.59 84:-0.59 85:-0.59 86:-0.59 87:-0.59 88:-0.59 89:-0.59 90:-0.59 91:-0.59 92:-0.59 93:-0.59 94:-0.59 95:-0.59 96:-0.4 97:-0.4 98:-0.4 99:0.2 100:-0.8 101:-1 102:-1 103:-1 104:-1 105:-1 106:-1 107:-1 108:-1 109:-0.8 110:-0.8 111:-0.8 112:-0.8 114:1 115:0.59 
0 0 0 0 2.160292556165285 4.264961432369402 0 0 0 1:1 2:-0.25 3:-0.75 4:-0.87 5:-0.93 6:-0.93 7:-0.93 8:-0.93 9:-1 10:-1 11:-1 12:-1 13:-0.87 14:-0.12 15:-0.31 16:-0.68 17:-0.81 18:-0.81 19:-0.87 20:-0.87 21:-0.87 22:-0.87 23:-0.87 24:-0.87 25:-0.56 26:-0.12 27:-0.06 28:-0.87 29:-1 30:-1 31:-1 32:-1 33:-1 34:-1 35:-1 36:-1 37:-0.37 38:-0.12 39:-0.81 40:0.62 41:1 42:-0.44 43:-0.88 44:-0.88 45:-0.88 46:-0.84 47:-1 48:-1 49:-1 50:-1 51:-1 52:-1 53:-1 54:-1 55:-1 56:-1 57:-0.88 58:-0.77 59:-0.55 60:-0.55 61:-0.66 62:-0.77 63:-0.77 64:-0.77 65:-0.77 66:-0.77 67:-0.77 68:-0.77 69:-0.77 70:-0.77 71:-0.77 72:-0.77 73:-0.77 74:-0.77 75:-0.77 76:-0.77 77:-0.77 78:-0.77 79:-0.77 80:-0.730994 81:-0.77 82:-0.77 83:-0.77 84:-0.77 85:-0.77 86:-0.77 87:-0.77 88:-0.77 89:-0.77 90:-0.77 91:-0.77 92:-0.77 93:-0.77 94:-0.77 95:-0.77 96:-0.77 97:-0.44 98:-0.66 99:-0.88 100:-1 101:-1 102:-1 103:-1 104:-1 105:-1 106:-1 107:-1 108:-1 109:-1 110:-1 111:-1 112:-0.77 113:-0.66 114:-0.33 115:0.55 
2.115725984545425 3.77169719854903 1.033615246030894 1.665906435679761 2.297380840968552 3.088955415020407 1.753952567172467 5.084596079493718 5.670089198591841 1:-0.23 2:1 3:0.53 4:0.53 5:-0.53 6:-0.84 7:-0.84 8:-0.84 9:-0.84 10:-1 11:-1 12:-0.69 13:-0.38 14:-0.69 15:-0.23 16:0.84 17:-0.23 18:-0.53 19:-0.53 20:-0.53 21:-0.53 22:-0.53 23:0.07 24:1 25:0.07 26:-0.84 27:-1 28:-1 29:-1 30:-1 31:-1 32:-0.84 33:-0.84 34:-0.84 35:-0.84 36:-0.23 37:1 38:0.53 39:-0.84 40:0.07 41:0.66 42:-0.55 43:-0.88 44:-0.88 45:-0.88 46:-0.84 47:-0.88 48:-1 49:-1 50:-1 51:-1 52:-1 53:-1 54:-1 55:-1 56:-1 57:-1 58:-1 59:-0.88 60:-0.66 61:-0.66 62:-0.77 63:-0.77 64:-0.77 65:-0.77 66:-0.77 67:-0.77 68:-0.77 69:-0.77 70:-0.77 71:-0.77 72:-0.77 73:-0.77 74:-0.77 75:-0.77 76:-0.77 77:-0.77 78:-0.77 79:-0.77 80:-0.730994 81:-0.77 82:-0.77 83:-0.77 84:-0.77 85:-0.77 86:-0.77 87:-0.77 88:-0.77 89:-0.77 90:-0.77 91:-0.77 92:-0.77 93:-0.77 94:-0.77 95:-0.66 96:-0.66 97:-0.66 98:-0.33 99:-0.77 100:-1 101:-1 102:-1 103:-1 104:-1 105:-1 106:-1 107:-1 108:-1 109:-1 110:-0.88 111:-0.88 112:-0.77 113:-0.77 114:-0.22 115:1 
0 0 0 0 0 0 0 0 1.778997436222186 1:1 2:0.25 3:-0.58 4:-0.83 5:-0.83 6:-0.83 7:-0.91 8:-1 9:-1 10:-1 11:-1 12:-1 13:-1 14:-1 15:-0.58 16:1 17:-0.75 18:-0.83 19:-0.83 20:-0.83 21:-0.83 22:-0.83 23:-0.66 24:0.16 25:0.16 26:-0.75 27:-1 28:-1 29:-1 30:-1 31:-1 32:-1 33:-1 34:-1 35:-0.91 36:-0.83 37:-0.83 38:-0.5 39:0.58 40:0.58 41:-0.28 42:0.42 43:-0.14 44:-0.71 45:-0.85 46:-0.8 47:-0.85 48:-1 49:-1 50:-1 51:-1 52:-1 53:-1 54:-1 55:-1 56:-1 57:-1 58:-1 59:-0.71 60:-0.57 61:-0.57 62:-0.57 63:-0.71 64:-0.71 65:-0.71 66:-0.71 67:-0.71 68:-0.71 69:-0.71 70:-0.71 71:-0.71 72:-0.71 73:-0.71 74:-0.71 75:-0.71 76:-0.71 77:-0.71 78:-0.71 79:-0.71 80:-0.660819 81:-0.71 82:-0.71 83:-0.71 84:-0.71 85:-0.71 86:-0.71 87:-0.71 88:-0.71 89:-0.71 90:-0.71 91:-0.71 92:-0.71 93:-0.71 94:-0.71 95:-0.71 96:-0.28 97:-0.42 98:-1 99:-1 100:-1 101:-1 102:-1 103:-1 104:-1 105:-1 106:-1 107:-1 108:-1 109:-0.85 110:-0.85 111:-0.85 112:-0.85 113:-0.57 115:1 
0.3134814929368179 6.709242075052025 3.778727722762479 2.711322567682198 10.48805314116645 9.283317147097227 0.562630032981169 18.67425415364013 18.57955920667319 1:1 2:0.28 3:-0.28 4:-0.71 5:-0.71 6:-0.71 7:-0.71 8:-0.85 9:-1 10:-1 11:-1 12:-1 13:-1 14:-1 15:-1 16:-1 17:-1 18:-1 19:-0.14 20:0.14 21:-0.57 22:-0.71 23:-0.71 24:-1 25:-1 26:-1 27:-1 28:-1 29:-1 30:-1 31:-1 32:-1 33:-1 34:-1 35:-0.71 36:-0.71 37:-0.71 38:-0.71 39:-0.57 40:-0.14 41:-0.14 42:-0.28 43:-0.28 44:-0.42 45:-0.57 46:-0.613333 47:-0.71 48:-0.71 49:-0.668571 50:-0.662921 51:-0.736842 52:-0.714286 53:-0.736842 54:-0.85 55:-0.85 56:-0.85 57:-0.85 58:-1 59:-1 60:-1 61:-1 62:-1 63:-1 64:-1 65:-1 66:-1 67:-1 68:-0.85 69:-0.71 70:-0.85 71:-0.85 72:-0.85 73:-0.85 74:-0.85 75:-0.85 76:-0.85 77:-0.85 78:-0.85 79:-0.85 80:-0.824561 81:-0.85 82:-0.85 83:-0.85 84:-0.85 85:-0.85 86:-0.85 87:-0.85 88:-0.85 89:-0.85 90:-0.85 91:-0.71 92:-0.85 93:-1 94:-1 95:-0.85 96:-0.85 97:-0.85 98:-0.85 99:-0.85 100:-0.85 101:-0.85 102:-0.85 103:-0.85 104:-0.85 105:-0.85 106:-0.85 107:-0.85 108:-0.85 109:-0.85 110:-0.71 111:-0.57 112:-0.57 113:-0.57 114:0.14 115:1 
0 3.719011294121893 1.912625445585248 1.623246079327701 3.214467757863934 18.24848424450276 0 7.678170163489964 15.00861224197637 1:1 2:-0.09 3:-0.81 4:-0.81 5:-0.81 6:-0.81 7:-0.9 8:-0.9 9:-0.9 10:-1 11:-1 12:-1 13:-1 14:-1 15:-1 16:-1 17:-1 18:-0.54 19:-0.27 20:-0.63 21:-0.81 22:-0.81 23:-0.9 24:-1 25:-1 26:-1 27:-1 28:-1 29:-1 30:-1 31:-1 32:-1 33:-1 34:-1 35:-1 36:-1 37:-0.9 38:-0.9 39:-0.45 40:0.09 41:0.23 42:-0.23 43:-0.53 44:-0.53 45:-0.53 46:-0.586667 47:-0.69 48:-0.84 49:-0.817143 50:-0.640449 51:-0.719298 52:-0.695238 53:-0.719298 54:-0.84 55:-0.84 56:-0.84 57:-0.84 58:-0.84 59:-0.84 60:-0.84 61:-0.84 62:-0.84 63:-0.84 64:-0.84 65:-0.84 66:-0.69 67:-0.53 68:-0.69 69:-0.69 70:-0.69 71:-0.69 72:-0.69 73:-0.69 74:-0.84 75:-0.84 76:-0.84 77:-0.84 78:-0.84 79:-0.84 80:-0.812865 81:-0.84 82:-0.84 83:-0.84 84:-0.84 85:-0.84 86:-0.84 87:-0.84 88:-0.84 89:-0.69 90:-0.84 91:-1 92:-1 93:-1 94:-1 95:-1 96:-1 97:-1 98:-1 99:-1 100:-1 101:-0.84 102:-0.84 103:-0.84 104:-0.84 105:-0.84 106:-0.84 107:-0.84 108:-0.69 109:-0.53 110:-0.53 111:-0.53 112:-0.53 113:-0.53 114:0.23 115:1 
0 0 4.221613366736237 0 4.048064678003093 0 0 1.315354681909783 1.077148655187084 1:1 2:-0.13 3:-0.82 4:-0.82 5:-0.91 6:-1 7:-1 8:-1 9:-1 10:-1 11:-1 12:-1 13:-1 14:-1 15:-1 16:-0.91 17:-0.47 18:-0.47 19:-0.73 20:-0.82 21:-0.56 22:-0.04 23:-0.56 24:-1 25:-1 26:-1 27:-1 28:-1 29:-1 30:-1 31:-1 32:-1 33:-1 34:-1 35:-1 36:-1 37:-0.91 38:-0.47 39:0.04 40:0.73 41:-0.25 42:-0.37 43:-0.37 44:-0.62 45:-0.75 46:-0.826667 47:-0.87 48:-1 49:-1 50:-1 51:-1 52:-1 53:-1 54:-1 55:-1 56:-1 57:-1 58:-1 59:-1 60:-1 61:-1 62:-1 63:-1 64:-1 65:-1 66:-1 67:-0.87 68:-0.87 69:-0.87 70:-0.87 71:-0.87 72:-0.75 73:-0.75 74:-0.75 75:-0.75 76:-0.75 77:-0.75 78:-0.75 79:-0.75 80:-0.707602 81:-0.75 82:-0.75 83:-0.75 84:-0.75 85:-0.75 86:-0.75 87:-0.75 88:-0.75 89:-0.75 90:-0.75 91:-0.75 92:-0.75 93:-0.75 94:-1 95:-1 96:-1 97:-1 98:-1 99:-1 100:-1 101:-1 102:-1 103:-1 104:-1 105:-1 106:-1 107:-1 108:-1 109:-1 110:-1 111:-0.87 112:-0.87 113:-0.75 114:0.12 115:1 
0 0 0.3104523323443481 0 0 0 0 0 0 1:-0.64 3:-0.29 4:-0.88 5:-0.88 6:-0.88 7:-0.94 8:-0.94 9:-0.94 10:-0.94 11:-1 12:-1 13:-0.94 14:-0.88 15:-0.64 16:-0.29 17:-0.82 18:-0.88 19:-0.88 20:-0.82 21:-0.82 22:-0.88 23:-0.88 24:-0.82 25:-0.82 26:-0.23 27:-0.23 28:-1 29:-1 30:-1 31:-1 32:-1 33:-1 34:-1 35:-1 36:-0.94 37:-1 38:-1 39:-0.47 40:1 41:0.23 42:-0.53 43:-0.84 44:-0.53 45:-0.69 46:-0.786667 47:-0.84 48:-1 49:-1 50:-1 51:-1 52:-1 53:-1 54:-1 55:-1 56:-1 57:-1 58:-1 59:-1 60:-1 61:-0.69 62:-0.53 63:-0.53 64:-0.53 65:-0.53 66:-0.69 67:-0.69 68:-0.69 69:-0.69 70:-0.69 71:-0.69 72:-0.69 73:-0.69 74:-0.69 75:-0.69 76:-0.69 77:-0.69 78:-0.69 79:-0.69 80:-0.637427 81:-0.69 82:-0.69 83:-0.69 84:-0.69 85:-0.69 86:-0.69 87:-0.69 88:-0.69 89:-0.69 90:-0.69 91:-0.69 92:-0.69 93:-0.69 94:-0.69 95:-0.53 96:-0.38 97:-0.53 98:-1 99:-1 100:-1 101:-1 102:-1 103:-1 104:-1 105:-1 106:-0.84 107:-0.84 108:-0.84 109:-0.84 110:-0.84 111:-0.84 112:-0.84 113:-0.84 114:-0.23 115:1 
0 0.2949839826062473 0 0 0 0.2523368917335896 0 0 0 1:0.73 2:-0.42 3:-0.84 4:-0.94 5:-0.94 6:-0.94 7:-0.94 8:-1 9:-1 10:-1 11:-1 12:-1 13:-1 14:-1 15:-0.63 16:-0.21 17:-0.73 18:-0.78 19:-0.84 20:-0.89 21:-0.89 22:-0.89 23:-0.73 24:-0.52 25:-0.21 26:-0.68 27:-1 28:-1 29:-1 30:-1 31:-1 32:-1 33:-1 34:-1 35:-1 36:-0.94 37:-0.94 38:-0.89 39:-0.42 40:1 41:-0.15 42:-0.57 43:-0.78 44:-0.78 45:-0.78 46:-0.706667 47:-0.89 48:-0.89 49:-1 50:-1 51:-1 52:-1 53:-1 54:-1 55:-1 56:-1 57:-1 58:-1 59:-1 60:-1 61:-0.68 62:-0.57 63:-0.68 64:-0.78 65:-0.78 66:-0.78 67:-0.78 68:-0.78 69:-0.78 70:-0.78 71:-0.78 72:-0.78 73:-0.78 74:-0.78 75:-0.78 76:-0.78 77:-0.78 78:-0.78 79:-0.78 80:-0.74269 81:-0.78 82:-0.78 83:-0.78 84:-0.78 85:-0.78 86:-0.78 87:-0.78 88:-0.78 89:-0.78 90:-0.78 91:-0.78 92:-0.78 93:-0.78 94:-0.78 95:-0.78 96:-0.68 97:-0.68 98:-0.78 99:-1 100:-1 101:-1 102:-1 103:-1 104:-1 105:-1 106:-1 107:-1 108:-1 109:-1 110:-1 111:-0.89 112:-0.89 113:-0.78 114:-0.26 115:1 
0 0 1.593376220318327 0 1.270419622031552 0 0 1.971370643978014 0 1:0.26 2:0.02 3:-0.9 4:-0.9 5:-0.95 6:-1 7:-1 8:-0.95 9:-1 10:-1 11:-1 12:-1 13:-0.17 14:-0.36 15:-0.8 16:-0.9 17:-0.9 18:-0.9 19:-0.9 20:-0.9 21:-0.9 22:-0.9 23:-0.9 24:-0.9 25:-0.9 26:-0.31 27:0.07 28:-1 29:-1 30:-1 31:-1 32:-1 33:-1 34:-1 35:-1 36:-0.95 37:-0.9 38:-0.9 39:-0.51 40:1 41:-0.29 42:-0.05 43:-0.52 44:-0.76 45:-0.76 46:-0.68 47:-0.88 48:-1 49:-1 50:-1 51:-1 52:-1 53:-1 54:-1 55:-1 56:-1 57:-0.88 58:-0.52 59:-0.52 60:-0.76 61:-0.76 62:-0.76 63:-0.76 64:-0.76 65:-0.76 66:-0.76 67:-0.76 68:-0.76 69:-0.76 70:-0.76 71:-0.76 72:-0.76 73:-0.76 74:-0.76 75:-0.76 76:-0.76 77:-0.76 78:-0.76 79:-0.76 80:-0.719298 81:-0.76 82:-0.76 83:-0.76 84:-0.76 85:-0.76 86:-0.76 87:-0.76 88:-0.76 89:-0.76 90:-0.76 91:-0.76 92:-0.76 93:-0.76 94:-0.76 95:-0.76 96:-0.76 97:-0.76 98:-0.76 99:-0.41 100:-0.52 101:-1 102:-1 103:-1 104:-1 105:-1 106:-1 107:-1 108:-1 109:-1 110:-1 111:-0.88 112:-0.76 113:-0.76 114:-0.41 115:1 
0 0 0 0 2.186687019475849 0.5270332536386378 0 1.38693348650517 0 1:0.04 2:0.9 3:-0.04 4:-0.9 5:-0.9 6:-0.9 7:-0.9 8:-1 9:-1 10:-1 11:-1 12:-1 13:-1 14:-1 15:-1 16:-1 17:0.42 18:0.04 19:-0.8 20:-0.8 21:-0.8 22:-0.8 23:-0.33 24:0.14 25:-0.14 26:-0.9 27:-1 28:-1 29:-1 30:-1 31:-1 32:-1 33:-1 34:-1 35:-1 36:-1 37:-0.9 38:0.14 39:1 40:-0.23 41:0.5 42:0.75 43:1 45:-0.75 46:-0.666667 47:-1 48:-1 49:-1 50:-1 51:-1 52:-0.52381 53:-0.561404 54:-1 55:-1 56:-1 57:-1 58:-1 59:-1 60:-1 61:-1 62:-1 63:-1 64:-0.5 65:-0.25 66:-0.25 67:-0.5 68:-0.5 69:-0.5 70:-0.5 71:-0.5 72:-0.5 73:-0.5 74:-0.5 75:-0.5 76:-0.5 77:-0.5 78:-0.5 79:-0.5 80:-0.415205 81:-0.5 82:-0.5 83:-0.5 84:-0.5 85:-0.5 86:-0.5 87:-0.5 88:-0.5 89:-0.5 90:-0.5 91:-0.5 92:-0.5 93:-0.5 94:-0.5 95:-0.5 96:-0.5 97:-0.5 98:-0.5 99:-0.5 100:-0.5 101:-0.5 102:-0.5 103:-0.5 104:-0.5 105:-0.25 106:0.25 107:-0.5 108:-1 109:-1 110:-1 111:-1 112:-1 113:-1 114:-1 115:-1 
0.7253642487772387 1.078429509523994 0 1.113722686089663 0.02869291452528435 0 0.7228071293565995 0.4046432191743701 0.9218624584588269 1:0.2 2:-0.11 3:-0.59 4:-0.76 5:-0.83 6:-1 7:-1 8:-1 9:-1 10:-1 11:-1 12:-1 13:-1 14:-1 15:0.11 16:-0.35 17:-0.68 18:-0.76 19:-0.83 20:-0.83 21:-0.83 22:-0.83 23:-0.76 24:-0.76 25:-0.35 26:0.28 27:-1 28:-1 29:-1 30:-1 31:-1 32:-1 33:-1 34:-1 35:-1 36:-0.92 37:-0.83 38:-0.59 39:-0.04 40:1 41:0.71 42:1 43:0.71 44:-0.14 45:-0.14 46:0.146667 47:-0.14 48:-0.42 49:-0.337143 50:0.303371 51:0.0175439 52:0.104762 53:-0.491228 54:-0.71 55:-0.71 56:-0.71 57:-0.71 58:-0.71 59:-0.71 60:-1 61:-1 62:-1 63:-1 64:-0.71 65:-0.14 66:0.14 67:-0.14 68:-0.14 69:-0.42 70:-0.42 71:-0.42 72:-0.42 73:-0.42 74:-0.14 75:-0.14 76:-0.14 77:-0.14 78:-0.14 79:-0.14 80:0.00584795 81:-0.14 82:-0.14 83:-0.14 84:-0.14 85:-0.14 86:-0.14 87:-0.14 88:-0.14 89:-0.14 90:-0.14 91:-0.14 92:-0.14 93:-0.14 94:-0.14 95:-0.14 96:-0.14 97:-0.14 98:-0.14 99:-0.14 100:-0.14 101:-0.14 102:0.14 103:0.71 104:0.71 105:-0.42 106:-0.71 107:-0.71 108:-0.71 109:-0.71 110:-0.71 111:-0.71 112:-0.71 113:-0.71 114:-0.71 115:-0.71 
0 0 0 0 4.712002907008164 1.816709131404287 0 0 0 1:1 2:-0.28 3:-0.92 4:-0.92 5:-1 6:-1 7:-1 8:-1 9:-1 10:-1 11:-1 12:-1 13:-1 14:-1 15:-1 16:-0.5 17:-0.28 18:-0.71 19:-0.78 20:-0.85 21:-0.85 22:-0.71 23:-0.42 24:-0.35 25:-0.57 26:-1 27:-1 28:-1 29:-1 30:-1 31:-1 32:-1 33:-1 34:-1 35:-1 36:-1 37:-0.92 38:-0.78 39:-0.14 40:1 41:1 42:-0.12 43:-1 44:-1 45:-1 46:-1 47:-1 48:-1 49:-1 50:-1 51:-1 52:-1 53:-1 54:-1 55:-1 56:-1 57:-1 58:-1 59:-1 60:-1 61:-0.75 62:-0.62 63:-0.62 64:-0.75 65:-0.75 66:-0.75 67:-0.75 68:-0.75 69:-0.75 70:-0.75 71:-0.75 72:-0.75 73:-0.75 74:-0.75 75:-0.75 76:-0.75 77:-0.75 78:-0.75 79:-0.75 80:-0.707602 81:-0.75 82:-0.75 83:-0.75 84:-0.75 85:-0.75 86:-0.75 87:-0.75 88:-0.75 89:-0.75 90:-0.75 91:-0.75 92:-0.62 93:-0.62 94:-0.87 95:-1 96:-1 97:-1 98:-1 99:-1 100:-1 101:-1 102:-1 103:-1 104:-1 105:-1 106:-1 107:-1 108:-1 109:-1 110:-1 111:-0.87 112:-0.62 113:-0.5 114:-0.12 115:0.37 
2.402697502047843 3.262782425149175 10.7847345444094 0.7024413436552286 9.433902237117287 9.125076264662354 4.546937199952512 12.78714461696456 13.0180704346162 1:-0.68 2:-0.62 3:-0.62 4:-0.68 5:-0.81 6:-0.81 7:-0.81 8:-0.87 9:-0.87 10:-0.87 11:-0.87 12:-0.87 13:-0.87 14:-0.87 15:-0.87 16:-0.87 17:-0.87 18:-0.87 19:-0.87 20:-0.87 21:-0.87 22:-0.81 23:-0.68 24:-0.12 25:-0.31 26:-1 27:-1 28:-1 29:-1 30:-1 31:-1 32:-1 33:-1 34:-1 35:-1 36:-1 37:-0.87 38:-0.87 39:-0.25 40:1 41:1 42:0.09 43:-0.63 44:-0.63 45:-0.81 46:-1 47:-1 48:-1 49:-1 50:-1 51:-1 52:-1 53:-1 54:-1 55:-1 56:-1 57:-1 58:-1 59:-0.81 60:0.27 61:-0.09 62:-0.81 63:-0.81 64:-1 65:-1 66:-1 67:-1 68:-1 69:-1 70:-1 71:-1 72:-1 73:-1 74:-1 75:-1 76:-1 77:-1 78:-1 79:-1 80:-1 81:-1 82:-1 83:-1 84:-1 85:-1 86:-1 87:-1 88:-1 89:-1 90:-1 91:-0.81 92:-0.09 93:0.09 94:-0.27 95:-0.45 96:-0.63 97:-1 98:-1 99:-1 100:-1 101:-1 102:-1 103:-1 104:-1 105:-1 106:-1 107:-1 108:-1 109:-1 110:-1 111:-0.63 112:-0.45 113:-0.45 114:-0.09 115:0.63 
0 0 0 0 0 0 0 0 1.067392632951661 1:1 2:-0.57 3:-0.87 4:-0.87 5:-0.87 6:-0.93 7:-1 8:-1 9:-1 10:-1 11:-1 12:-1 13:-1 14:-1 15:-1 16:-0.69 17:-0.27 18:-0.45 19:-0.81 20:-0.87 21:-0.87 22:-0.87 23:-0.63 24:-0.09 25:-0.51 26:-1 27:-1 28:-1 29:-1 30:-1 31:-1 32:-1 33:-1 34:-1 35:-0.93 36:-0.93 37:-0.93 38:-0.75 39:-0.39 40:0.81 41:-0.68 42:-0.05 43:-0.26 44:-0.78 45:-0.78 46:-0.706667 47:-0.78 48:-0.89 49:-0.874286 50:-1 51:-1 52:-1 53:-1 54:-1 55:-1 56:-1 57:-1 58:-1 59:-1 60:-1 61:-0.78 62:-0.68 63:-0.78 64:-0.78 65:-0.78 66:-0.78 67:-0.78 68:-0.78 69:-0.78 70:-0.78 71:-0.78 72:-0.78 73:-0.78 74:-0.78 75:-0.78 76:-0.78 77:-0.78 78:-0.78 79:-0.78 80:-0.74269 81:-0.78 82:-0.78 83:-0.78 84:-0.78 85:-0.78 86:-0.78 87:-0.78 88:-0.78 89:-0.78 90:-0.78 91:-0.78 92:-0.78 93:-0.78 94:-0.78 95:-0.78 96:-0.68 97:-0.57 98:-0.78 99:-1 100:-1 101:-1 102:-1 103:-1 104:-1 105:-1 106:-1 107:-1 108:-1 109:-0.89 110:-0.89 111:-0.89 112:-0.89 113:-0.78 114:-0.26 115:1 
0 6.054403791575606 0 0.4894809618623629 5.171847134492959 11.39703627439547 0 4.261789086442772 2.735002286165859 1:1 2:-0.25 3:-0.87 4:-0.87 5:-0.87 6:-0.93 7:-1 8:-1 9:-1 10:-1 11:-1 12:-1 13:-1 14:-1 15:-0.75 16:-0.18 17:-0.56 18:-0.81 19:-0.87 20:-0.87 21:-0.87 22:-0.87 23:-0.31 24:-0.31 25:-1 26:-1 27:-1 28:-1 29:-1 30:-1 31:-1 32:-1 33:-1 34:-0.93 35:-0.93 36:-0.93 37:-0.87 38:-0.56 39:-0.12 40:0.56 42:-0.4 43:-0.69 44:-0.9 45:-0.9 46:-1 47:-1 48:-1 49:-1 50:-1 51:-1 52:-1 53:-1 54:-1 55:-1 56:-1 57:-1 58:-1 59:-1 60:-1 61:-1 62:-1 63:-1 64:-1 65:-1 66:-0.8 67:-0.69 68:-0.8 69:-0.8 70:-0.8 71:-0.8 72:-0.8 73:-0.8 74:-0.8 75:-0.8 76:-0.8 77:-0.8 78:-0.8 79:-0.8 80:-0.766082 81:-0.8 82:-0.8 83:-0.8 84:-0.8 85:-0.8 86:-0.8 87:-0.8 88:-0.8 89:-0.8 90:-0.8 91:-0.8 92:-0.59 93:-0.69 94:-1 95:-1 96:-1 97:-1 98:-1 99:-1 100:-1 101:-1 102:-1 103:-1 104:-1 105:-1 106:-1 107:-1 108:-1 109:-1 110:-1 111:-1 112:-1 113:-1 114:-0.29 115:1 
0 0 0 0 0 8.813478010140569 0 0 0 1:1 2:-0.5 3:-0.94 4:-0.94 5:-1 6:-1 7:-1 8:-1 9:-1 10:-1 11:-1 12:-1 13:-1 14:-1 15:-0.11 16:-0.38 17:-0.83 18:-0.88 19:-0.88 20:-0.88 21:-0.88 22:-0.88 23:-0.88 24:-0.27 25:-0.44 26:-0.88 27:-0.88 28:-0.94 29:-0.94 30:-0.94 31:-0.94 32:-0.94 33:-0.94 34:-0.94 35:-0.94 36:-0.88 37:-0.83 38:-0.61 39:-0.22 40:0.33 41:-0.29 42:0.05 43:-0.05 44:-0.76 45:-0.88 46:-1 47:-1 48:-1 49:-1 50:-1 51:-1 52:-1 53:-1 54:-1 55:-1 56:-1 57:-1 58:-1 59:-1 60:-0.76 61:-0.64 62:-0.76 63:-0.76 64:-0.76 65:-0.76 66:-0.76 67:-0.76 68:-0.76 69:-0.76 70:-0.76 71:-0.76 72:-0.76 73:-0.76 74:-0.76 75:-0.76 76:-0.76 77:-0.76 78:-0.76 79:-0.76 80:-0.719298 81:-0.76 82:-0.76 83:-0.76 84:-0.76 85:-0.76 86:-0.76 87:-0.76 88:-0.76 89:-0.76 90:-0.41 91:-0.05 92:-0.76 93:-1 94:-0.88 95:-0.88 96:-0.76 97:-0.76 98:-0.76 99:-0.76 100:-0.64 101:-0.88 102:-1 103:-1 104:-1 105:-1 106:-1 107:-1 108:-1 109:-1 110:-1 111:-0.88 112:-0.64 113:-0.64 114:-0.17 115:1 
0 0 0 0 0 0 0 0 1.198126016530196 1:1 2:-0.23 3:-0.84 4:-0.84 5:-0.84 6:-0.92 7:-0.92 8:-1 9:-1 10:-1 11:-1 12:-1 13:-1 14:-1 15:-0.84 16:-0.46 17:-0.46 18:-0.53 19:-0.61 20:-0.76 21:-0.84 22:-0.69 23:-0.15 24:-0.3 25:-1 26:-1 27:-1 28:-1 29:-1 30:-1 31:-1 32:-1 33:-1 34:-1 35:-1 36:-0.92 37:-0.84 38:-0.07 39:0.15 40:-0.07 41:0.25 42:-0.25 43:-0.75 44:-0.75 45:-0.75 46:-0.666667 47:-0.87 48:-1 49:-1 50:-1 51:-1 52:-1 53:-1 54:-1 55:-1 56:-1 57:-1 58:-1 59:-1 60:-1 61:-1 62:-1 63:-1 64:-0.75 65:-0.62 66:-0.62 67:-0.75 68:-0.75 69:-0.75 70:-0.75 71:-0.75 72:-0.75 73:-0.75 74:-0.75 75:-0.75 76:-0.75 77:-0.75 78:-0.75 79:-0.75 80:-0.707602 81:-0.75 82:-0.75 83:-0.75 84:-0.75 85:-0.75 86:-0.75 87:-0.75 88:-0.75 89:-0.75 90:-0.75 91:-0.75 92:-0.75 93:-0.75 94:-0.62 95:-0.62 96:-0.87 97:-1 98:-1 99:-1 100:-1 101:-1 102:-1 103:-1 104:-1 105:-1 106:-1 107:-1 108:-1 109:-1 110:-1 111:-1 112:-0.87 113:-0.87 115:1 
0 0 0 0 0 0 0 0 0.6076247420601634 1:1 2:0.13 3:-0.56 4:-0.82 5:-0.91 6:-0.91 7:-0.91 8:-0.91 9:-1 10:-1 11:-1 12:-1 13:-0.82 14:0.21 15:-0.3 16:-0.56 17:-0.65 18:-0.73 19:-0.73 20:-0.73 21:-0.73 22:-0.73 23:-0.73 24:-0.56 25:-0.04 26:0.13 27:-1 28:-1 29:-1 30:-1 31:-1 32:-1 33:-0.91 34:-0.91 35:-0.82 36:-0.82 37:-0.56 38:0.04 39:0.65 40:-0.3 41:1 42:-0.16 43:-0.66 44:-0.66 45:-0.66 46:-0.546667 47:-0.66 48:-0.83 49:-1 50:-1 51:-1 52:-1 53:-1 54:-1 55:-1 56:-1 57:-1 58:-0.83 59:-0.5 60:-0.5 61:-0.5 62:-0.66 63:-0.66 64:-0.66 65:-0.66 66:-0.66 67:-0.66 68:-0.66 69:-0.66 70:-0.66 71:-0.66 72:-0.66 73:-0.66 74:-0.66 75:-0.66 76:-0.66 77:-0.66 78:-0.66 79:-0.66 80:-0.602339 81:-0.66 82:-0.66 83:-0.66 84:-0.66 85:-0.66 86:-0.66 87:-0.66 88:-0.66 89:-0.66 90:-0.66 91:-0.66 92:-0.66 93:-0.66 94:-0.66 95:-0.66 96:-0.33 97:-0.33 98:-0.33 99:-0.66 100:-1 101:-1 102:-1 103:-1 104:-1 105:-1 106:-1 107:-0.83 108:-0.83 109:-0.83 110:-0.66 111:-0.66 112:-0.66 113:-0.5 115:0.83 
0 0 0 0 0 0 0 0 0.04210322822105178 1:1 2:-0.51 3:-0.81 4:-0.87 5:-0.87 6:-0.93 7:-1 8:-1 9:-1 10:-1 11:-1 12:-1 13:-1 14:-1 15:-0.81 16:-0.09 17:-0.39 18:-0.87 19:-0.87 20:-0.87 21:-0.87 22:-0.87 23:-0.51 24:-0.27 25:-0.45 26:-1 27:-1 28:-1 29:-1 30:-1 31:-1 32:-1 33:-1 34:-1 35:-1 36:-0.93 37:-0.87 38:-0.45 39:0.45 40:-0.21 41:0.42 42:-0.14 43:-0.42 44:-0.71 45:-0.71 46:-0.8 47:-1 48:-1 49:-1 50:-1 51:-1 52:-1 53:-1 54:-1 55:-1 56:-1 57:-1 58:-1 59:-1 60:-1 61:-0.57 62:-0.42 63:-0.57 64:-0.71 65:-0.71 66:-0.71 67:-0.71 68:-0.71 69:-0.71 70:-0.71 71:-0.71 72:-0.71 73:-0.71 74:-0.71 75:-0.71 76:-0.71 77:-0.71 78:-0.71 79:-0.71 80:-0.660819 81:-0.71 82:-0.71 83:-0.71 84:-0.71 85:-0.71 86:-0.71 87:-0.71 88:-0.71 89:-0.71 90:-0.71 91:-0.71 92:-0.71 93:-0.71 94:-0.57 95:-0.42 96:-0.57 97:-0.85 98:-1 99:-1 100:-1 101:-1 102:-1 103:-1 104:-1 105:-1 106:-1 107:-1 108:-1 109:-1 110:-1 111:-0.71 112:-0.71 113:-0.57 115:1 
2.939271938228171 4.033360244567769 0 0.863417002581416 1.571326307012307 0.1832201389271187 0 2.327700662928952 0 1:-0.33 2:-0.13 3:-0.4 4:-0.8 5:-0.86 6:-0.93 7:-0.93 8:-1 9:-1 10:-1 11:-1 12:-1 13:-1 14:-1 15:-0.93 16:-0.86 17:-0.4 18:-0.53 19:-0.8 20:-0.86 21:-0.86 22:-0.86 23:-0.46 25:-0.86 26:-1 27:-1 28:-1 29:-1 30:-0.93 31:-0.93 32:-0.93 33:-0.93 34:-0.93 35:-0.93 36:-0.93 37:-0.93 38:-0.86 39:-0.33 40:1 41:1 42:-0.09 43:-0.81 44:-0.81 45:-0.81 46:-0.746667 47:-0.81 48:-0.63 49:-0.782857 50:-0.573034 51:-1 52:-1 53:-1 54:-1 55:-1 56:-1 57:-1 58:-1 59:-1 60:-1 61:-1 62:-0.63 63:-0.63 64:-0.63 65:-0.63 66:-0.63 67:-0.63 68:-0.63 69:-0.63 70:-0.63 71:-0.63 72:-0.63 73:-0.63 74:-0.63 75:-0.63 76:-0.63 77:-0.63 78:-0.63 79:-0.63 80:-0.567251 81:-0.63 82:-0.63 83:-0.63 84:-0.63 85:-0.63 86:-0.63 87:-0.63 88:-0.63 89:-0.63 90:-0.81 91:-1 92:-1 93:-1 94:-1 95:-1 96:-1 97:-1 98:-1 99:-1 100:-1 101:-1 102:-1 103:-1 104:-1 105:-1 106:-0.81 107:-0.81 108:-0.63 109:-0.63 110:-0.63 111:-0.81 112:-0.81 113:-0.81 114:-0.45 115:0.09 
0.7244223302528602 0 0.09418915182557466 0.6880325554432409 2.396185836968046 0.6586404279387524 0.1241310602814765 1.705061768085985 2.023314401350677 1:-0.58 2:0.25 3:-0.16 4:-0.75 5:-0.91 6:-0.91 7:-0.91 8:-1 9:-1 10:-1 11:-1 12:-1 13:-0.91 14:-0.33 15:-0.5 16:-0.66 17:-0.75 18:-0.83 19:-0.83 20:-0.83 21:-0.25 22:0.33 23:-0.91 24:-1 25:-1 26:-1 27:-1 28:-1 29:-0.91 30:-0.91 31:-0.91 32:-0.91 33:-0.83 35:1 36:-1 37:-0.83 38:-0.83 39:-1 40:-1 41:0.23 42:-0.07 43:-0.23 44:-0.53 45:-0.69 46:-0.586667 47:-0.69 48:-0.69 49:-0.645714 50:-0.640449 51:-0.719298 52:-0.695238 53:-0.719298 54:-0.84 55:-0.84 56:-0.69 57:-0.69 58:-0.84 59:-1 60:-1 61:-0.84 62:-0.69 63:-0.53 64:-0.69 65:-0.69 66:-0.69 67:-0.69 68:-0.69 69:-0.69 70:-0.69 71:-0.69 72:-0.69 73:-0.69 74:-0.69 75:-0.69 76:-0.69 77:-0.69 78:-0.69 79:-0.69 80:-0.637427 81:-0.69 82:-0.69 83:-0.69 84:-0.69 85:-0.69 86:-0.69 87:-0.69 88:-0.69 89:-0.69 90:-0.69 91:-0.69 92:-0.69 93:-0.69 94:-0.69 95:-0.53 96:-0.53 97:-1 98:-1 99:-1 100:-1 101:-1 102:-1 103:-1 104:-1 105:-1 106:-1 107:-1 108:-1 109:-1 110:-0.84 111:-0.84 112:-0.69 113:-0.69 114:0.07 115:1 
0 0 0 0 0 2.272648362395421 5.328261848602604 1.975395549116395 4.718369777440239 1:1 3:-0.59 4:-0.8 5:-0.8 6:-0.8 7:-0.8 8:-0.9 9:-1 10:-1 11:-1 12:-1 13:-1 14:-1 15:-1 16:-1 17:-0.5 18:-0.4 19:-0.5 20:-0.69 21:-0.8 22:-0.8 23:0.1 25:-1 26:-1 27:-1 28:-1 29:-1 30:-1 31:-1 32:-1 33:-1 34:-1 35:-0.9 36:-0.9 37:-0.9 38:-0.9 39:-0.29 40:1 41:0.25 42:-0.25 43:-0.75 44:-0.75 45:-0.75 46:-0.666667 47:-0.75 48:-0.75 49:-0.851429 50:-1 51:-1 52:-1 53:-1 54:-1 55:-1 56:-1 57:-1 58:-1 59:-1 60:-1 61:-1 62:-1 63:-1 64:-0.87 65:-0.75 66:-0.75 67:-0.75 68:-0.75 69:-0.75 70:-0.75 71:-0.75 72:-0.75 73:-0.87 74:-0.87 75:-0.87 76:-0.87 77:-0.87 78:-0.87 79:-0.87 80:-0.847953 81:-0.87 82:-0.87 83:-0.87 84:-0.87 85:-0.87 86:-0.87 87:-0.87 88:-0.87 89:-0.87 90:-0.75 91:-0.75 92:-0.75 93:-0.75 94:-0.87 95:-1 96:-1 97:-1 98:-1 99:-1 100:-1 101:-1 102:-1 103:-1 104:-1 105:-1 106:-1 107:-1 108:-1 109:-1 110:-0.87 111:-0.87 112:-0.87 113:-0.87 115:1 
-0 1.252097767682937 0.8200590265217906 0 0 4.684200960276561 0 0 0 1:-0.82 2:-0.89 3:-0.96 4:-0.96 5:-0.96 6:-0.96 7:-0.96 8:-1 9:-1 10:-1 11:-1 12:-1 13:-1 14:-0.96 15:-0.96 16:-0.96 17:-1 18:-1 19:-1 20:-0.78 21:-0.15 22:-0.19 23:-0.54 24:-0.75 25:-0.89 26:-1 27:-1 28:-1 29:-1 30:-1 31:-1 32:-1 33:-1 34:-1 35:-1 36:-1 37:-1 38:-0.92 39:-0.19 40:1 41:-0.59 42:-0.59 43:-0.59 44:-0.8 45:-0.8 46:-0.733333 47:-0.8 48:-0.8 49:-0.771429 50:-0.550562 51:-0.649123 52:-1 53:-1 54:-1 55:-1 56:-1 57:-1 58:-1 59:-1 60:-1 61:-0.59 62:-0.4 63:-0.4 64:0.2 66:-1 67:-1 68:-1 69:-1 70:-1 71:-1 72:-1 73:-1 74:-1 75:-1 76:-1 77:-1 78:-1 79:-1 80:-1 81:-1 82:-1 83:-1 84:-1 85:-1 86:-1 87:-1 88:-1 89:-1 90:-1 91:-1 92:-1 93:-1 94:-1 95:-1 96:-1 97:-1 98:-1 99:-1 100:-1 101:-1 102:-1 103:-1 104:-1 105:-1 106:-1 107:-1 108:-1 109:-1 110:-1 111:-1 112:-1 113:-1 114:-0.8 115:1 
-0 0.8830240297520447 0 2.335603043400968 0 0 0 0.2521067752804949 0.1303860105554596 1:-0.69 2:-0.86 3:-0.95 4:-0.95 5:-0.95 6:-1 7:-1 8:-1 9:-1 10:-1 11:-1 12:-1 13:-1 14:-1 15:-1 16:-1 17:-1 18:-1 19:-1 20:-0.78 21:0.69 22:-0.08 23:-0.82 24:-0.91 25:-0.91 26:-0.91 27:-0.95 28:-1 29:-1 30:-1 31:-0.86 32:-0.52 33:-0.82 34:-0.91 35:-0.86 36:-0.86 37:-0.91 38:-0.78 39:-0.21 40:1 41:0.09 42:-0.63 43:-0.63 44:-1 45:-1 46:-0.746667 47:-0.81 48:-0.81 49:-1 50:-1 51:-0.350877 52:-0.295238 53:-0.350877 54:-0.63 55:-1 56:-1 57:-1 58:-1 59:-1 60:-1 61:-1 62:-0.63 63:-0.45 64:0.27 65:-0.45 66:-1 67:-1 68:-1 69:-1 70:-1 71:-1 72:-1 73:-1 74:-1 75:-1 76:-1 77:-1 78:-1 79:-1 80:-1 81:-1 82:-1 83:-1 84:-1 85:-1 86:-1 87:-1 88:-0.81 89:-0.45 90:-1 91:-1 92:-1 93:-1 94:-1 95:-1 96:-1 97:-1 98:-1 99:-0.81 100:-0.45 101:-1 102:-1 103:-1 104:-1 105:-1 106:-1 107:-1 108:-1 109:-1 110:-1 111:-1 112:-1 113:-1 114:-1 115:1 
-0 0 0 0.6023445560555344 0 0.1118415175797334 0 0 0 1:-0.65 2:-0.84 3:-0.94 4:-0.94 5:-0.94 6:-0.94 7:-0.94 8:-0.94 9:-1 10:-1 11:-1 12:-1 13:-0.94 14:-1 15:-1 16:-1 17:-0.59 18:-0.05 19:0.59 20:-0.29 21:-0.84 22:-1 23:-1 24:-1 25:-1 26:-1 27:-1 28:-1 29:-1 30:-1 31:-1 32:-1 33:-1 34:-1 35:-0.9 36:-0.25 37:1 38:-0.14 39:-0.59 40:-0.29 41:0.77 42:-0.55 43:-0.77 44:-0.77 45:-0.77 46:-1 47:-1 48:-1 49:-0.737143 50:-0.483146 51:-0.596491 52:-1 53:-1 54:-1 55:-1 56:-1 57:-1 58:-1 59:-1 60:-1 61:-1 62:-0.77 63:0.55 64:0.33 65:-1 66:-1 67:-1 68:-1 69:-1 70:-1 71:-1 72:-1 73:-1 74:-1 75:-1 76:-1 77:-1 78:-1 79:-1 80:-1 81:-1 82:-1 83:-1 84:-1 85:-1 86:-1 87:-1 88:-1 89:-1 90:-1 91:-1 92:-1 93:-1 94:-1 95:-1 96:-1 97:-1 98:-1 99:-1 100:-1 101:-1 102:-1 103:-1 104:-1 105:-1 106:-1 107:-1 108:-1 109:-1 110:-1 111:-1 112:-1 113:-1 114:-0.77 115:1 
-0 0 0 0 0 0.09050013279212067 0 1.671690540678838 0 1:-0.77 2:-0.9 3:-0.93 4:-0.96 5:-0.96 6:-1 7:-1 8:-1 9:-1 10:-0.96 11:-0.96 12:-0.96 13:-0.96 14:-0.93 15:-1 16:-1 17:-1 18:-1 19:-0.93 20:-0.67 21:0.18 22:-0.37 23:-1 24:-1 25:-0.96 26:-0.93 27:-0.93 28:-0.93 29:-0.93 30:-0.96 31:-1 32:-1 33:-1 34:-1 35:-1 36:-1 37:-1 38:-0.9 39:-0.27 40:1 41:1 42:-0.14 43:-0.42 44:-0.71 45:-0.71 46:-0.613333 47:-0.71 48:-0.71 49:-0.668571 50:0.932584 51:1 52:0.638095 53:-0.491228 54:-1 55:-1 56:-1 57:-1 58:-1 59:-1 60:-1 61:-1 62:-1 63:-0.42 64:-0.14 65:0.71 66:-0.42 67:-1 68:-1 69:-1 70:-1 71:-1 72:-1 73:-1 74:-1 75:-1 76:-1 77:-1 78:-1 79:-1 80:-1 81:-1 82:-1 83:-1 84:-1 85:-1 86:-1 87:-1 88:-1 89:-1 90:-1 91:-1 92:-1 93:-1 94:-1 95:-1 96:-1 97:-1 98:-1 99:-1 100:-1 101:-1 102:-1 103:-1 104:-1 105:-1 106:-1 107:-1 108:-1 109:-1 110:-1 111:-1 112:-1 113:-1 114:-0.71 115:1 
-0 0 0 0 0.05651527039062385 0 0.5188334597285015 0 0 1:-0.72 2:-0.89 3:-0.96 4:-0.96 5:-0.96 6:-0.96 7:-0.96 8:-0.96 9:-0.96 10:-0.96 11:-0.96 12:-0.96 13:-1 14:-1 15:-1 16:-1 17:-0.55 18:0.01 19:-0.45 20:-0.79 21:-0.96 22:-1 23:-1 24:-1 25:-1 26:-0.93 27:-0.93 28:-0.93 29:-0.93 30:-0.93 31:-1 32:-1 33:-1 34:-1 35:-1 36:-1 37:-1 38:-1 39:-0.18 40:1 41:0.59 42:-0.4 43:-0.59 44:-0.59 45:-0.59 46:-0.453333 47:-0.59 48:-0.59 49:-0.531429 50:0.348315 51:0.403509 52:0.52381 53:0.0526316 54:-0.8 55:-0.8 56:-0.8 57:-0.8 58:-0.8 59:-0.8 60:-0.8 61:-0.8 62:-0.8 63:-0.8 64:-0.8 65:-0.59 66:1 67:-0.59 68:-1 69:-0.8 70:-0.8 71:-0.8 72:-0.8 73:-0.8 74:-0.8 75:-0.8 76:-0.8 77:-0.8 78:-0.8 79:-0.8 80:-0.766082 81:-0.8 82:-0.8 83:-0.8 84:-0.8 85:-0.8 86:-0.8 87:-0.8 88:-0.8 89:-0.8 90:-0.8 91:-0.8 92:-0.8 93:-0.8 94:-0.8 95:-0.8 96:-0.8 97:-0.8 98:-0.8 99:-0.8 100:-0.8 101:-0.8 102:-0.8 103:-0.8 104:-0.8 105:-0.8 106:-0.8 107:-0.8 108:-0.8 109:-0.8 110:-0.8 111:-0.8 112:-0.8 113:-0.8 114:-0.4 115:0.59 
-0.8915669434691952 0.2871994129034223 0.4211289178877103 1.727519319598522 1.061027937252101 0.5203545036928706 1.617604545252164 1.335877012751381 0.2680242031712466 1:-1 2:-0.93 3:-1 4:-1 5:-1 6:-1 7:-0.56 8:-0.75 9:-0.81 10:-0.81 11:-0.87 12:-0.87 13:-0.81 14:-0.81 15:-0.56 16:-0.68 17:-0.62 18:0.31 19:-0.06 20:-0.87 21:-0.87 22:-0.87 23:-0.87 24:-0.68 25:-0.75 26:-0.68 27:-0.81 28:-0.25 29:-0.93 30:-0.68 31:0.06 32:1 34:-1 35:-1 36:-1 37:-1 38:-0.93 39:-1 40:-0.93 41:0.11 42:-0.11 43:-0.33 44:-0.33 45:-0.33 46:-0.106667 47:-0.33 48:0.11 49:0.0171429 50:0.011236 51:-0.210526 52:-0.142857 53:-0.210526 54:-0.55 55:-0.55 56:-0.55 57:-0.55 58:0.33 59:-0.55 60:-0.55 61:-0.55 62:-0.55 63:-0.55 64:-0.55 65:-0.55 66:-0.55 67:-0.55 68:-0.55 69:-0.55 70:-0.55 71:-0.55 72:-0.55 73:-0.55 74:-0.55 75:-0.55 76:-0.55 77:-0.55 78:-0.33 79:-0.55 80:-0.473684 81:-0.55 82:-0.55 83:-0.55 84:-0.55 85:-0.55 86:-0.55 87:-0.55 88:-0.55 89:0.77 90:-0.77 91:-1 92:-1 93:-1 94:-1 95:-1 96:-1 97:-1 98:-1 99:-1 100:-1 101:-1 102:-1 103:-1 104:-1 105:-0.33 106:1 107:0.77 108:-0.11 109:-0.33 110:-0.11 111:-0.55 112:-0.55 113:-0.55 114:-0.55 115:-0.33 
